{"learner":{"attributes":{"best_iteration":"79","best_ntree_limit":"80"},"feature_names":["experian_experianProfileSummary_installmentBalance","experian_experianProfileSummary_totalRevolvingBalance","experian_experianProfileSummary_totalRevolvingAvailablePercent","experian_experianProfileSummary_pastDueAmount","experian_experianProfileSummary_monthlyPayment","experian_experianProfileSummary_inquiriesDuringLastSixMonthsCounter","experian_experianProfileSummary_totalInquiriesCounter","experian_experianProfileSummary_totalTradeItemsCounter","experian_experianProfileSummary_paidAccountsCounter","experian_experianProfileSummary_wasDelinquentDerogCounter","experian_experianProfileSummary_thirtyDayCounter","experian_experianProfileSummary_ninetyPlusDayCounter","experian_experianProfileSummary_derogCounter","experian_experianRiskModel_V3","experian_experianRiskModel_RC","datax_dataxReport_idaScore","coreLogic_coreLogicInquiryReport_corelIdScore","coreLogic_coreLogicApplicantVariable_TTInqall00","coreLogic_coreLogicApplicantVariable_TTRecinqm","rc_9105_flag","equipment_type_Automotive","equipment_type_Construction/Landscaping","equipment_type_DTG/Embroidery","equipment_type_Entertainment/Amusement","equipment_type_Food Service","equipment_type_Food Truck","equipment_type_Industrial","equipment_type_Janitorial/Remediation","equipment_type_Office/Printing","equipment_type_Other","equipment_type_Photo-A/V","equipment_type_Rental","equipment_type_Trailers"],"feature_types":["float","float","float","float","float","float","float","float","float","float","float","float","float","float","float","float","float","float","float","int","int","int","int","int","int","int","int","int","int","int","int","int","int"],"gradient_booster":{"model":{"gbtree_model_param":{"num_parallel_tree":"1","num_trees":"80","size_leaf_vector":"0"},"tree_info":[0,0,0,0,0,0,0,0,0,0,0,0,0,0,0,0,0,0,0,0,0,0,0,0,0,0,0,0,0,0,0,0,0,0,0,0,0,0,0,0,0,0,0,0,0,0,0,0,0,0,0,0,0,0,0,0,0,0,0,0,0,0,0,0,0,0,0,0,0,0,0,0,0,0,0,0,0,0,0,0],"trees":[{"base_weights":[-1.6780943E0,-1.4012733E0,-1.7916583E0,-1.2756112E0,-1.5139829E0,-1.8274775E0,-1.5987333E0,-1.1566945E-1,-1.4134161E-1,-1.6520487E-1,-1.3902275E-1,-1.7576222E-1,-1.8874072E-1,-1.19441345E-1,-1.6541801E-1],"categories":[],"categories_nodes":[],"categories_segments":[],"categories_sizes":[],"default_left":[0,0,1,1,0,1,1,0,0,0,0,0,0,0,0],"id":0,"left_children":[1,3,5,7,9,11,13,-1,-1,-1,-1,-1,-1,-1,-1],"loss_changes":[1.9611133E2,2.3931885E1,2.771875E1,1.2520752E1,1.3925781E1,1.21171875E1,1.366748E1,0E0,0E0,0E0,0E0,0E0,0E0,0E0,0E0],"parents":[2147483647,0,0,1,1,2,2,3,3,4,4,5,5,6,6],"right_children":[2,4,6,8,10,12,14,-1,-1,-1,-1,-1,-1,-1,-1],"split_conditions":[6.15E2,5.77E2,5.03E2,4.413E3,4.26E2,6.51E2,1.1E2,-1.1566945E-1,-1.4134161E-1,-1.6520487E-1,-1.3902275E-1,-1.7576222E-1,-1.8874072E-1,-1.19441345E-1,-1.6541801E-1],"split_indices":[14,14,16,1,16,13,4,0,0,0,0,0,0,0,0],"split_type":[0,0,0,0,0,0,0,0,0,0,0,0,0,0,0],"sum_hessian":[6.32725E3,1.84475E3,4.4825E3,8.785E2,9.6625E2,3.773E3,7.095E2,4.77E2,4.015E2,4.505E2,5.1575E2,1.757E3,2.016E3,8.85E1,6.21E2],"tree_param":{"num_deleted":"0","num_feature":"33","num_nodes":"15","size_leaf_vector":"0"}},{"base_weights":[-1.5266516E0,-1.2810512E0,-1.6203912E0,-1.1756772E0,-1.425594E0,-1.5079284E0,-1.663214E0,-1.03591695E-1,-1.2954104E-1,-1.2370862E-1,-1.49205E-1,-1.3033526E-1,-1.5325962E-1,-1.3319133E-1,-1.6752857E-1],"categories":[],"categories_nodes":[],"categories_segments":[],"categories_sizes":[],"default_left":[0,1,0,0,0,0,0,0,0,0,0,0,0,0,0],"id":1,"left_children":[1,3,5,7,9,11,13,-1,-1,-1,-1,-1,-1,-1,-1],"loss_changes":[1.4365039E2,2.4825928E1,1.9262695E1,1.5532593E1,7.0982666E0,4.1586914E0,1.0709961E1,0E0,0E0,0E0,0E0,0E0,0E0,0E0,0E0],"parents":[2147483647,0,0,1,1,2,2,3,3,4,4,5,5,6,6],"right_children":[2,4,6,8,10,12,14,-1,-1,-1,-1,-1,-1,-1,-1],"split_conditions":[6.11E2,5.209E3,6.56E2,5.73E2,5.57E2,3.47E2,3E1,-1.03591695E-1,-1.2954104E-1,-1.2370862E-1,-1.49205E-1,-1.3033526E-1,-1.5325962E-1,-1.3319133E-1,-1.6752857E-1],"split_indices":[14,1,14,14,14,1,4,0,0,0,0,0,0,0,0],"split_type":[0,0,0,0,0,0,0,0,0,0,0,0,0,0,0],"sum_hessian":[6.341308E3,1.7560752E3,4.585233E3,1.02133325E3,7.347419E2,1.275088E3,3.310145E3,4.760932E2,5.4524005E2,1.9701439E2,5.377275E2,1.4343613E2,1.1316519E3,1.20578026E2,3.1895671E3],"tree_param":{"num_deleted":"0","num_feature":"33","num_nodes":"15","size_leaf_vector":"0"}},{"base_weights":[-1.3889722E0,-1.1614949E0,-1.5009542E0,-1.269454E0,-1.0393125E0,-1.5309346E0,-1.2457706E0,-1.09261E-1,-1.3534176E-1,-4.23075E-2,-1.0662109E-1,-1.5780714E-1,-1.451345E-1,-7.7063374E-2,-1.289812E-1],"categories":[],"categories_nodes":[],"categories_segments":[],"categories_sizes":[],"default_left":[0,1,1,0,0,1,0,0,0,0,0,0,0,0,0],"id":2,"left_children":[1,3,5,7,9,11,13,-1,-1,-1,-1,-1,-1,-1,-1],"loss_changes":[1.5640723E2,2.5572998E1,2.9669922E1,1.4412598E1,1.5487305E1,1.13671875E1,8.079712E0,0E0,0E0,0E0,0E0,0E0,0E0,0E0,0E0],"parents":[2147483647,0,0,1,1,2,2,3,3,4,4,5,5,6,6],"right_children":[2,4,6,8,10,12,14,-1,-1,-1,-1,-1,-1,-1,-1],"split_conditions":[6.23E2,4.37E2,5.31E2,5.66E2,5.11E2,5E1,1E0,-1.09261E-1,-1.3534176E-1,-4.23075E-2,-1.0662109E-1,-1.5780714E-1,-1.451345E-1,-7.7063374E-2,-1.289812E-1],"split_indices":[14,16,16,14,14,3,8,0,0,0,0,0,0,0,0],"split_type":[0,0,0,0,0,0,0,0,0,0,0,0,0,0,0],"sum_hessian":[6.217926E3,2.0552373E3,4.1626885E3,1.0857079E3,9.695293E2,3.7202244E3,4.4246417E2,3.5442438E2,7.3128357E2,4.1404514E1,9.2812476E2,2.323845E3,1.3963796E3,3.9295635E1,4.0316855E2],"tree_param":{"num_deleted":"0","num_feature":"33","num_nodes":"15","size_leaf_vector":"0"}},{"base_weights":[-1.2971605E0,-9.776161E-1,-1.3717047E0,-1.0270766E0,-5.6881976E-1,-1.2639352E0,-1.4309468E0,-8.422579E-2,-1.12343565E-1,-6.57317E-2,2.2151826E-2,-1.2122797E-1,-1.358003E-1,-1.1609679E-1,-1.4452177E-1],"categories":[],"categories_nodes":[],"categories_segments":[],"categories_sizes":[],"default_left":[0,1,0,0,1,0,1,0,0,0,0,0,0,0,0],"id":3,"left_children":[1,3,5,7,9,11,13,-1,-1,-1,-1,-1,-1,-1,-1],"loss_changes":[1.4227637E2,2.242871E1,2.9167969E1,1.7038574E1,9.012909E0,6.57666E0,1.0197266E1,0E0,0E0,0E0,0E0,0E0,0E0,0E0,0E0],"parents":[2147483647,0,0,1,1,2,2,3,3,4,4,5,5,6,6],"right_children":[2,4,6,8,10,12,14,-1,-1,-1,-1,-1,-1,-1,-1],"split_conditions":[5.9E2,1.5011E4,6.56E2,2.359E3,1.7E1,2.5E1,1E0,-8.422579E-2,-1.12343565E-1,-6.57317E-2,2.2151826E-2,-1.2122797E-1,-1.358003E-1,-1.1609679E-1,-1.4452177E-1],"split_indices":[14,3,14,1,17,7,2,0,0,0,0,0,0,0,0],"split_type":[0,0,0,0,0,0,0,0,0,0,0,0,0,0,0],"sum_hessian":[6.038092E3,1.1450635E3,4.8930283E3,1.0199071E3,1.2515641E2,1.744171E3,3.1488572E3,3.5321368E2,6.666934E2,1.1281852E2,1.2337889E1,1.1355543E3,6.0861676E2,1.625759E2,2.9862812E3],"tree_param":{"num_deleted":"0","num_feature":"33","num_nodes":"15","size_leaf_vector":"0"}},{"base_weights":[-1.210368E0,-1.0045394E0,-1.29499E0,-8.509103E-1,-1.1568294E0,-1.3556709E0,-1.135466E0,-8.049236E-2,-1.17598E-1,-9.60891E-2,-1.2327625E-1,-1.2673627E-1,-1.3959539E-1,-1.0201546E-1,-1.2709747E-1],"categories":[],"categories_nodes":[],"categories_segments":[],"categories_sizes":[],"default_left":[0,1,1,1,0,0,0,0,0,0,0,0,0,0,0],"id":4,"left_children":[1,3,5,7,9,11,13,-1,-1,-1,-1,-1,-1,-1,-1],"loss_changes":[1.0072168E2,3.8943604E1,3.84458E1,1.1680664E1,1.1365112E1,8.655762E0,1.6474731E1,0E0,0E0,0E0,0E0,0E0,0E0,0E0,0E0],"parents":[2147483647,0,0,1,1,2,2,3,3,4,4,5,5,6,6],"right_children":[2,4,6,8,10,12,14,-1,-1,-1,-1,-1,-1,-1,-1],"split_conditions":[6.03E2,6.012E3,4.64E2,2.6E1,5.58E2,2.761E3,9.44E2,-8.049236E-2,-1.17598E-1,-9.60891E-2,-1.2327625E-1,-1.2673627E-1,-1.3959539E-1,-1.0201546E-1,-1.2709747E-1],"split_indices":[13,1,16,10,13,1,4,0,0,0,0,0,0,0,0],"split_type":[0,0,0,0,0,0,0,0,0,0,0,0,0,0,0],"sum_hessian":[5.869583E3,1.7141804E3,4.1554023E3,8.5694464E2,8.572358E2,3.0044282E3,1.1509741E3,7.540543E2,1.02890305E2,2.4360529E2,6.136305E2,9.521258E2,2.0523025E3,6.268347E2,5.241394E2],"tree_param":{"num_deleted":"0","num_feature":"33","num_nodes":"15","size_leaf_vector":"0"}},{"base_weights":[-1.1387519E0,-1.0077764E0,-1.2473793E0,-8.4699166E-1,-1.1162419E0,-1.299292E0,-1.1061232E0,-7.800429E-2,-1.1223991E-1,-1.14343405E-1,-6.28354E-2,-1.15919314E-1,-1.3285919E-1,-1.006064E-1,-1.2154418E-1],"categories":[],"categories_nodes":[],"categories_segments":[],"categories_sizes":[],"default_left":[0,1,1,1,1,1,1,0,0,0,0,0,0,0,0],"id":5,"left_children":[1,3,5,7,9,11,13,-1,-1,-1,-1,-1,-1,-1,-1],"loss_changes":[7.8842285E1,4.3593994E1,2.0918945E1,1.8070923E1,1.937976E1,7.4353027E0,7.692749E0,0E0,0E0,0E0,0E0,0E0,0E0,0E0,0E0],"parents":[2147483647,0,0,1,1,2,2,3,3,4,4,5,5,6,6],"right_children":[2,4,6,8,10,12,14,-1,-1,-1,-1,-1,-1,-1,-1],"split_conditions":[6.29E2,3.95E3,4.63E2,1.8E1,5.83E2,7.72E2,8.96E2,-7.800429E-2,-1.1223991E-1,-1.14343405E-1,-6.28354E-2,-1.15919314E-1,-1.3285919E-1,-1.006064E-1,-1.2154418E-1],"split_indices":[13,1,16,10,16,1,4,0,0,0,0,0,0,0,0],"split_type":[0,0,0,0,0,0,0,0,0,0,0,0,0,0,0],"sum_hessian":[5.644695E3,2.5641816E3,3.0805132E3,1.0368817E3,1.5272999E3,2.2461362E3,8.343771E2,8.374914E2,1.9939032E2,1.4452037E3,8.209622E1,3.961073E2,1.8500289E3,4.4144296E2,3.9293414E2],"tree_param":{"num_deleted":"0","num_feature":"33","num_nodes":"15","size_leaf_vector":"0"}},{"base_weights":[-1.0640663E0,-7.590329E-1,-1.1387645E0,-7.864373E-1,-1.7651598E-1,-1.0205733E0,-1.2046084E0,-8.357308E-2,-5.9078403E-2,1.5069571E-2,-6.035438E-2,-1.0688969E-1,-8.065971E-2,-1.2215086E-1,-7.911861E-2],"categories":[],"categories_nodes":[],"categories_segments":[],"categories_sizes":[],"default_left":[0,1,0,1,0,1,1,0,0,0,0,0,0,0,0],"id":6,"left_children":[1,3,5,7,9,11,13,-1,-1,-1,-1,-1,-1,-1,-1],"loss_changes":[1.2192041E2,1.6764954E1,3.2269043E1,9.168396E0,7.0251217E0,1.5053833E1,1.823291E1,0E0,0E0,0E0,0E0,0E0,0E0,0E0,0E0],"parents":[2147483647,0,0,1,1,2,2,3,3,4,4,5,5,6,6],"right_children":[2,4,6,8,10,12,14,-1,-1,-1,-1,-1,-1,-1,-1],"split_conditions":[5.9E2,9.3E1,6.56E2,5.11E2,5.74E2,7.9E1,5.92E2,-8.357308E-2,-5.9078403E-2,1.5069571E-2,-6.035438E-2,-1.0688969E-1,-8.065971E-2,-1.2215086E-1,-7.911861E-2],"split_indices":[14,2,14,16,14,2,16,0,0,0,0,0,0,0,0],"split_type":[0,0,0,0,0,0,0,0,0,0,0,0,0,0,0],"sum_hessian":[5.396045E3,1.0639329E3,4.3321123E3,1.0156309E3,4.8301937E1,1.5563862E3,2.7757258E3,8.082224E2,2.0740854E2,2.7580898E1,2.0721039E1,1.2660123E3,2.9037393E2,2.6646038E3,1.1112209E2],"tree_param":{"num_deleted":"0","num_feature":"33","num_nodes":"15","size_leaf_vector":"0"}},{"base_weights":[-9.985758E-1,-8.660649E-1,-1.1140684E0,-9.8569334E-1,-7.408926E-1,-1.1715772E0,-9.037962E-1,-9.307834E-2,-1.12646244E-1,-5.664243E-2,-8.496391E-2,-1.0697863E-1,-1.2136848E-1,-9.464603E-2,-5.216195E-2],"categories":[],"categories_nodes":[],"categories_segments":[],"categories_sizes":[],"default_left":[0,1,1,1,1,1,0,0,0,0,0,0,0,0,0],"id":7,"left_children":[1,3,5,7,9,11,13,-1,-1,-1,-1,-1,-1,-1,-1],"loss_changes":[7.831055E1,3.5382446E1,3.223877E1,8.296509E0,2.1928162E1,7.782715E0,9.139343E0,0E0,0E0,0E0,0E0,0E0,0E0,0E0,0E0],"parents":[2147483647,0,0,1,1,2,2,3,3,4,4,5,5,6,6],"right_children":[2,4,6,8,10,12,14,-1,-1,-1,-1,-1,-1,-1,-1],"split_conditions":[6.3E2,4.21E2,4.82E2,3.1E1,6.79E2,5.28E2,6.54E2,-9.307834E-2,-1.12646244E-1,-5.664243E-2,-8.496391E-2,-1.0697863E-1,-1.2136848E-1,-9.464603E-2,-5.216195E-2],"split_indices":[13,16,16,7,4,4,16,0,0,0,0,0,0,0,0],"split_type":[0,0,0,0,0,0,0,0,0,0,0,0,0,0,0],"sum_hessian":[5.1919604E3,2.4222024E3,2.769758E3,1.2346045E3,1.1875979E3,2.1709602E3,5.9879785E2,8.941462E2,3.4045837E2,4.5874115E2,7.2885675E2,6.436883E2,1.527272E3,5.3710077E2,6.1697056E1],"tree_param":{"num_deleted":"0","num_feature":"33","num_nodes":"15","size_leaf_vector":"0"}},{"base_weights":[-9.543197E-1,-1.0589788E0,-8.313397E-1,-1.1567955E0,-9.641789E-1,-9.3727833E-1,-7.2970605E-1,-1.0834815E-1,-1.20057E-1,-9.9681795E-2,-7.5880185E-2,-3.5199653E-2,-9.5741E-2,-4.8989225E-2,-8.085358E-2],"categories":[],"categories_nodes":[],"categories_segments":[],"categories_sizes":[],"default_left":[1,0,1,0,1,0,0,0,0,0,0,0,0,0,0],"id":8,"left_children":[1,3,5,7,9,11,13,-1,-1,-1,-1,-1,-1,-1,-1],"loss_changes":[6.2626953E1,2.3426514E1,2.3701782E1,2.6695557E0,8.198975E0,1.2640747E1,2.1570068E1,0E0,0E0,0E0,0E0,0E0,0E0,0E0,0E0],"parents":[2147483647,0,0,1,1,2,2,3,3,4,4,5,5,6,6],"right_children":[2,4,6,8,10,12,14,-1,-1,-1,-1,-1,-1,-1,-1],"split_conditions":[4.22E2,4E0,1E0,6E0,8E0,2.9E1,4E0,-1.0834815E-1,-1.20057E-1,-9.9681795E-2,-7.5880185E-2,-3.5199653E-2,-9.5741E-2,-4.8989225E-2,-8.085358E-2],"split_indices":[16,12,11,8,17,4,8,0,0,0,0,0,0,0,0],"split_type":[0,0,0,0,0,0,0,0,0,0,0,0,0,0,0],"sum_hessian":[4.9478325E3,2.6684707E3,2.2793618E3,1.3073059E3,1.3611648E3,1.1115372E3,1.1678246E3,4.9922845E2,8.080774E2,1.1707637E3,1.9040112E2,3.774151E1,1.0737957E3,2.9100876E2,8.7681586E2],"tree_param":{"num_deleted":"0","num_feature":"33","num_nodes":"15","size_leaf_vector":"0"}},{"base_weights":[-8.9453477E-1,-9.903401E-1,-7.2002155E-1,-1.0405887E0,-7.4942136E-1,-6.004367E-1,-8.222865E-1,-5.9469473E-2,-1.0614542E-1,-3.3439413E-2,-7.9225965E-2,-6.2004287E-2,8.739855E-2,-9.2158735E-2,-7.300916E-2],"categories":[],"categories_nodes":[],"categories_segments":[],"categories_sizes":[],"default_left":[0,1,0,0,0,1,1,0,0,0,0,0,0,0,0],"id":9,"left_children":[1,3,5,7,9,11,13,-1,-1,-1,-1,-1,-1,-1,-1],"loss_changes":[7.769873E1,3.573755E1,1.9784912E1,2.251123E1,8.992798E0,2.2888031E1,7.373535E0,0E0,0E0,0E0,0E0,0E0,0E0,0E0,0E0],"parents":[2147483647,0,0,1,1,2,2,3,3,4,4,5,5,6,6],"right_children":[2,4,6,8,10,12,14,-1,-1,-1,-1,-1,-1,-1,-1],"split_conditions":[9.92E2,5.03E2,7.37E2,2E0,1E0,2.3E1,4E0,-5.9469473E-2,-1.0614542E-1,-3.3439413E-2,-7.9225965E-2,-6.2004287E-2,8.739855E-2,-9.2158735E-2,-7.300916E-2],"split_indices":[3,16,4,2,8,17,17,0,0,0,0,0,0,0,0],"split_type":[0,0,0,0,0,0,0,0,0,0,0,0,0,0,0],"sum_hessian":[4.699128E3,3.0302915E3,1.6688365E3,2.5042446E3,5.2604694E2,7.728931E2,8.959434E2,1.1347947E2,2.3907651E3,5.0259705E1,4.7578726E2,7.633892E2,9.503896E0,4.264949E2,4.6944852E2],"tree_param":{"num_deleted":"0","num_feature":"33","num_nodes":"15","size_leaf_vector":"0"}},{"base_weights":[-8.5270995E-1,-5.8830535E-1,-9.6400464E-1,8.978813E-2,-6.165832E-1,-1.0337764E0,-7.8524816E-1,-4.020926E-2,5.2746058E-2,-8.3694585E-2,-5.6004066E-2,-6.8073556E-2,-1.0497148E-1,-8.31699E-2,-5.509798E-2],"categories":[],"categories_nodes":[],"categories_segments":[],"categories_sizes":[],"default_left":[0,0,1,0,1,0,0,0,0,0,0,0,0,0,0],"id":10,"left_children":[1,3,5,7,9,11,13,-1,-1,-1,-1,-1,-1,-1,-1],"loss_changes":[1.309231E2,2.5573975E1,3.8250732E1,1.18278675E1,1.5280182E1,1.1827148E1,9.065918E0,0E0,0E0,0E0,0E0,0E0,0E0,0E0,0E0],"parents":[2147483647,0,0,1,1,2,2,3,3,4,4,5,5,6,6],"right_children":[2,4,6,8,10,12,14,-1,-1,-1,-1,-1,-1,-1,-1],"split_conditions":[6.11E2,5.05E2,4.59E2,4.3E1,3.67E2,2E0,5.98E2,-4.020926E-2,5.2746058E-2,-8.3694585E-2,-5.6004066E-2,-6.8073556E-2,-1.0497148E-1,-8.31699E-2,-5.509798E-2],"split_indices":[14,14,16,12,16,2,16,0,0,0,0,0,0,0,0],"split_type":[0,0,0,0,0,0,0,0,0,0,0,0,0,0,0],"sum_hessian":[4.472656E3,1.3270784E3,3.1455774E3,5.2897717E1,1.2741807E3,2.258646E3,8.869315E2,2.4837152E1,2.8060564E1,2.5700162E2,1.0171791E3,9.972301E1,2.1589229E3,7.3768567E2,1.492459E2],"tree_param":{"num_deleted":"0","num_feature":"33","num_nodes":"15","size_leaf_vector":"0"}},{"base_weights":[-8.0279464E-1,-6.5349233E-1,-9.384756E-1,-7.148748E-1,-3.9646292E-1,-1.0102644E0,-7.532925E-1,-4.951882E-2,-7.791344E-2,-4.2508643E-2,6.0481515E-2,-1.0616243E-1,-8.9688614E-2,-7.9527736E-2,-2.8192667E-2],"categories":[],"categories_nodes":[],"categories_segments":[],"categories_sizes":[],"default_left":[0,1,1,0,0,1,0,0,0,0,0,0,0,0,0],"id":11,"left_children":[1,3,5,7,9,11,13,-1,-1,-1,-1,-1,-1,-1,-1],"loss_changes":[8.527637E1,3.1570068E1,2.861206E1,2.2552246E1,1.1506199E1,8.160156E0,1.204248E1,0E0,0E0,0E0,0E0,0E0,0E0,0E0,0E0],"parents":[2147483647,0,0,1,1,2,2,3,3,4,4,5,5,6,6],"right_children":[2,4,6,8,10,12,14,-1,-1,-1,-1,-1,-1,-1,-1],"split_conditions":[6.29E2,5.06E2,4.65E2,5.63E2,7.55E2,3E0,1E0,-4.951882E-2,-7.791344E-2,-4.2508643E-2,6.0481515E-2,-1.0616243E-1,-8.9688614E-2,-7.9527736E-2,-2.8192667E-2],"split_indices":[13,16,16,13,16,5,23,0,0,0,0,0,0,0,0],"split_type":[0,0,0,0,0,0,0,0,0,0,0,0,0,0,0],"sum_hessian":[4.246766E3,2.0250117E3,2.2217544E3,1.6328839E3,3.9212778E2,1.5974753E3,6.2427893E2,3.718587E2,1.2610253E3,3.818861E2,1.0241643E1,1.0930724E3,5.0440295E2,5.72396E2,5.1882946E1],"tree_param":{"num_deleted":"0","num_feature":"33","num_nodes":"15","size_leaf_vector":"0"}},{"base_weights":[-7.573729E-1,-8.668998E-1,-5.7192904E-1,-9.58712E-1,-7.3064125E-1,-3.7328494E-1,-6.4997584E-1,-5.7840016E-2,-9.830587E-2,-6.2115826E-2,-8.803294E-2,-4.5362387E-2,2.8234504E-3,-7.0280336E-2,-3.3206176E-2],"categories":[],"categories_nodes":[],"categories_segments":[],"categories_sizes":[],"default_left":[0,0,0,1,0,1,1,0,0,0,0,0,0,0,0],"id":12,"left_children":[1,3,5,7,9,11,13,-1,-1,-1,-1,-1,-1,-1,-1],"loss_changes":[8.219653E1,3.1178467E1,2.3183807E1,1.3412842E1,1.6279663E1,1.3951744E1,1.7933044E1,0E0,0E0,0E0,0E0,0E0,0E0,0E0,0E0],"parents":[2147483647,0,0,1,1,2,2,3,3,4,4,5,5,6,6],"right_children":[2,4,6,8,10,12,14,-1,-1,-1,-1,-1,-1,-1,-1],"split_conditions":[9.11E2,4.36E2,4E0,3E0,8E0,7E0,1E1,-5.7840016E-2,-9.830587E-2,-6.2115826E-2,-8.803294E-2,-4.5362387E-2,2.8234504E-3,-7.0280336E-2,-3.3206176E-2],"split_indices":[3,16,8,2,8,17,17,0,0,0,0,0,0,0,0],"split_type":[0,0,0,0,0,0,0,0,0,0,0,0,0,0,0],"sum_hessian":[4.0773772E3,2.5607393E3,1.5166381E3,1.525843E3,1.0348961E3,4.2979398E2,1.0868441E3,9.3540695E1,1.4323024E3,6.010797E2,4.338164E2,3.5823502E2,7.155897E1,9.306702E2,1.5617392E2],"tree_param":{"num_deleted":"0","num_feature":"33","num_nodes":"15","size_leaf_vector":"0"}},{"base_weights":[-7.133724E-1,-3.9514473E-1,-8.5413283E-1,-2.0624346E-1,-4.8769772E-1,-6.882944E-1,-9.229531E-1,-2.8640265E-2,1.52344955E-2,-3.4559693E-2,-5.994335E-2,-3.3835743E-2,-7.295605E-2,-6.9270104E-2,-9.612395E-2],"categories":[],"categories_nodes":[],"categories_segments":[],"categories_sizes":[],"default_left":[0,0,0,0,1,1,0,0,0,0,0,0,0,0,0],"id":13,"left_children":[1,3,5,7,9,11,13,-1,-1,-1,-1,-1,-1,-1,-1],"loss_changes":[1.7447864E2,2.0806412E1,3.0095215E1,1.1457701E1,1.246666E1,1.1172333E1,1.6001953E1,0E0,0E0,0E0,0E0,0E0,0E0,0E0,0E0],"parents":[2147483647,0,0,1,1,2,2,3,3,4,4,5,5,6,6],"right_children":[2,4,6,8,10,12,14,-1,-1,-1,-1,-1,-1,-1,-1],"split_conditions":[6.09E2,5.58E2,6.55E2,1.0754E4,7.54E2,1.24E2,6.06E2,-2.8640265E-2,1.52344955E-2,-3.4559693E-2,-5.994335E-2,-3.3835743E-2,-7.295605E-2,-6.9270104E-2,-9.612395E-2],"split_indices":[14,14,14,3,4,4,13,0,0,0,0,0,0,0,0],"split_type":[0,0,0,0,0,0,0,0,0,0,0,0,0,0,0],"sum_hessian":[3.9044707E3,1.198791E3,2.7056797E3,3.9562543E2,8.031655E2,7.9716956E2,1.9085101E3,3.2373712E2,7.188832E1,3.5573938E2,4.4742615E2,8.53155E1,7.1185406E2,2.7519662E2,1.6333135E3],"tree_param":{"num_deleted":"0","num_feature":"33","num_nodes":"15","size_leaf_vector":"0"}},{"base_weights":[-6.77548E-1,-4.6235332E-1,-7.963948E-1,-6.444332E-1,-3.7632027E-1,-6.3471395E-1,-8.7350047E-1,-4.6642017E-2,-7.4759685E-2,-5.350808E-3,-4.109546E-2,-7.231159E-2,-3.9882388E-2,-9.415641E-2,-7.779729E-2],"categories":[],"categories_nodes":[],"categories_segments":[],"categories_sizes":[],"default_left":[0,0,0,0,0,0,0,0,0,0,0,0,0,0,0],"id":14,"left_children":[1,3,5,7,9,11,13,-1,-1,-1,-1,-1,-1,-1,-1],"loss_changes":[9.372278E1,2.0229065E1,2.885962E1,7.236725E0,9.9347E0,1.5653473E1,9.516113E0,0E0,0E0,0E0,0E0,0E0,0E0,0E0,0E0],"parents":[2147483647,0,0,1,1,2,2,3,3,4,4,5,5,6,6],"right_children":[2,4,6,8,10,12,14,-1,-1,-1,-1,-1,-1,-1,-1],"split_conditions":[6.09E2,3.19E2,5.71E2,9.95E2,5.27E2,9.72E2,3E0,-4.6642017E-2,-7.4759685E-2,-5.350808E-3,-4.109546E-2,-7.231159E-2,-3.9882388E-2,-9.415641E-2,-7.779729E-2],"split_indices":[13,3,4,4,13,3,5,0,0,0,0,0,0,0,0],"split_type":[0,0,0,0,0,0,0,0,0,0,0,0,0,0,0],"sum_hessian":[3.68291E3,1.3123623E3,2.3705476E3,4.1865988E2,8.937024E2,7.688642E2,1.6016833E3,1.559876E2,2.6267227E2,8.712059E1,8.0658185E2,5.5746124E2,2.1140294E2,9.295055E2,6.721779E2],"tree_param":{"num_deleted":"0","num_feature":"33","num_nodes":"15","size_leaf_vector":"0"}},{"base_weights":[-6.331232E-1,-4.066765E-1,-7.6070493E-1,-2.1273682E-1,-5.559514E-1,-8.490033E-1,-5.4763377E-1,4.880391E-3,-2.931358E-2,-5.949539E-2,6.633705E-3,-7.360973E-2,-9.462571E-2,-1.878538E-2,-6.033302E-2],"categories":[],"categories_nodes":[],"categories_segments":[],"categories_sizes":[],"default_left":[0,1,1,0,1,1,0,0,0,0,0,0,0,0,0],"id":15,"left_children":[1,3,5,7,9,11,13,-1,-1,-1,-1,-1,-1,-1,-1],"loss_changes":[1.0292871E2,3.7198578E1,4.2419434E1,1.1891815E1,1.7784744E1,1.686499E1,1.3296783E1,0E0,0E0,0E0,0E0,0E0,0E0,0E0,0E0],"parents":[2147483647,0,0,1,1,2,2,3,3,4,4,5,5,6,6],"right_children":[2,4,6,8,10,12,14,-1,-1,-1,-1,-1,-1,-1,-1],"split_conditions":[6.09E2,4.35E3,4.67E2,5.54E2,5.83E2,4.484E3,3.16E2,4.880391E-3,-2.931358E-2,-5.949539E-2,6.633705E-3,-7.360973E-2,-9.462571E-2,-1.878538E-2,-6.033302E-2],"split_indices":[13,1,16,13,16,1,1,0,0,0,0,0,0,0,0],"split_type":[0,0,0,0,0,0,0,0,0,0,0,0,0,0,0],"sum_hessian":[3.5764753E3,1.2906508E3,2.2858247E3,5.6269116E2,7.279596E2,1.613658E3,6.721667E2,1.3210336E2,4.305878E2,6.8521765E2,4.2741955E1,7.511794E2,8.624786E2,9.093384E1,5.8123285E2],"tree_param":{"num_deleted":"0","num_feature":"33","num_nodes":"15","size_leaf_vector":"0"}},{"base_weights":[-6.069347E-1,-4.5363677E-1,-7.6427126E-1,-3.452999E-1,-5.990243E-1,-5.9646404E-1,-8.365652E-1,-4.3119602E-2,-6.433267E-3,-6.444932E-2,-1.4470309E-2,-4.889766E-2,-7.63963E-2,-9.142794E-2,-6.8088524E-2],"categories":[],"categories_nodes":[],"categories_segments":[],"categories_sizes":[],"default_left":[0,1,1,1,1,0,0,0,0,0,0,0,0,0,0],"id":16,"left_children":[1,3,5,7,9,11,13,-1,-1,-1,-1,-1,-1,-1,-1],"loss_changes":[8.158435E1,2.688266E1,1.9703125E1,2.385646E1,1.5014526E1,8.6627655E0,1.336377E1,0E0,0E0,0E0,0E0,0E0,0E0,0E0,0E0],"parents":[2147483647,0,0,1,1,2,2,3,3,4,4,5,5,6,6],"right_children":[2,4,6,8,10,12,14,-1,-1,-1,-1,-1,-1,-1,-1],"split_conditions":[6.31E2,9E0,4E0,6E0,1.4E1,1E0,3E0,-4.3119602E-2,-6.433267E-3,-6.444932E-2,-1.4470309E-2,-4.889766E-2,-7.63963E-2,-9.142794E-2,-6.8088524E-2],"split_indices":[13,8,8,17,17,19,11,0,0,0,0,0,0,0,0],"split_type":[0,0,0,0,0,0,0,0,0,0,0,0,0,0,0],"sum_hessian":[3.400951E3,1.7248723E3,1.6760787E3,9.907034E2,7.341688E2,5.0786523E2,1.1682135E3,7.5806146E2,2.3264195E2,6.6679663E2,6.737222E1,3.1210043E2,1.9576479E2,7.755499E2,3.9266357E2],"tree_param":{"num_deleted":"0","num_feature":"33","num_nodes":"15","size_leaf_vector":"0"}},{"base_weights":[-5.5314344E-1,-3.1970683E-1,-6.678352E-1,-1.4823061E-1,-4.907822E-1,-5.660035E-1,-8.002323E-1,-5.734512E-3,-3.662426E-2,-3.955935E-2,-7.022222E-2,-4.7010556E-2,-7.700175E-2,-6.960071E-2,-8.826399E-2],"categories":[],"categories_nodes":[],"categories_segments":[],"categories_sizes":[],"default_left":[0,1,1,1,0,0,0,0,0,0,0,0,0,0,0],"id":17,"left_children":[1,3,5,7,9,11,13,-1,-1,-1,-1,-1,-1,-1,-1],"loss_changes":[8.740167E1,3.1591042E1,2.901239E1,1.0673266E1,1.0494598E1,2.3870178E1,7.4020386E0,0E0,0E0,0E0,0E0,0E0,0E0,0E0,0E0],"parents":[2147483647,0,0,1,1,2,2,3,3,4,4,5,5,6,6],"right_children":[2,4,6,8,10,12,14,-1,-1,-1,-1,-1,-1,-1,-1],"split_conditions":[6.02E2,5.527E3,5.853E3,1.4E1,3.7E1,6.81E2,9E0,-5.734512E-3,-3.662426E-2,-3.955935E-2,-7.022222E-2,-4.7010556E-2,-7.700175E-2,-6.960071E-2,-8.826399E-2],"split_indices":[13,1,1,10,7,13,8,0,0,0,0,0,0,0,0],"split_type":[0,0,0,0,0,0,0,0,0,0,0,0,0,0,0],"sum_hessian":[3.2751797E3,1.080551E3,2.1946287E3,5.408673E2,5.3968365E2,1.243916E3,9.507127E2,3.8294556E2,1.5792177E2,3.744521E2,1.6523155E2,8.4875037E2,3.9516562E2,4.2449313E2,5.2621954E2],"tree_param":{"num_deleted":"0","num_feature":"33","num_nodes":"15","size_leaf_vector":"0"}},{"base_weights":[-5.380482E-1,-3.0946326E-1,-7.34331E-1,-1.7304604E-3,-3.6433715E-1,-5.307546E-1,-8.0607724E-1,-1.9007893E-2,3.5804596E-2,-3.9605048E-2,3.7904102E-3,-7.9725E-3,-5.7557434E-2,-8.7523244E-2,-6.796972E-2],"categories":[],"categories_nodes":[],"categories_segments":[],"categories_sizes":[],"default_left":[0,0,1,1,1,0,0,0,0,0,0,0,0,0,0],"id":18,"left_children":[1,3,5,7,9,11,13,-1,-1,-1,-1,-1,-1,-1,-1],"loss_changes":[1.408158E2,2.4537964E1,2.4145264E1,1.5061935E1,1.5802475E1,8.865997E0,1.0161072E1,0E0,0E0,0E0,0E0,0E0,0E0,0E0,0E0],"parents":[2147483647,0,0,1,1,2,2,3,3,4,4,5,5,6,6],"right_children":[2,4,6,8,10,12,14,-1,-1,-1,-1,-1,-1,-1,-1],"split_conditions":[6.38E2,5.44E2,1.716E3,8E0,9.3E1,4E0,1.1E2,-1.9007893E-2,3.5804596E-2,-3.9605048E-2,3.7904102E-3,-7.9725E-3,-5.7557434E-2,-8.7523244E-2,-6.796972E-2],"split_indices":[14,14,1,17,2,7,3,0,0,0,0,0,0,0,0],"split_type":[0,0,0,0,0,0,0,0,0,0,0,0,0,0,0],"sum_hessian":[3.1448865E3,1.454318E3,1.6905685E3,2.205162E2,1.2338019E3,4.4309644E2,1.247472E3,1.4523373E2,7.528246E1,1.1438805E3,8.9921326E1,4.050423E1,4.025922E2,8.0193604E2,4.45536E2],"tree_param":{"num_deleted":"0","num_feature":"33","num_nodes":"15","size_leaf_vector":"0"}},{"base_weights":[-5.0912565E-1,-6.577797E-1,-3.4485596E-1,-7.870094E-1,-4.733767E-1,-5.411841E-1,-2.3002663E-1,-2.6599664E-2,-8.0243744E-2,-5.0780308E-2,1.37605965E-2,-3.5450585E-2,-6.5133825E-2,4.730206E-3,-2.8066168E-2],"categories":[],"categories_nodes":[],"categories_segments":[],"categories_sizes":[],"default_left":[0,0,1,0,0,0,0,0,0,0,0,0,0,0,0],"id":19,"left_children":[1,3,5,7,9,11,13,-1,-1,-1,-1,-1,-1,-1,-1],"loss_changes":[7.300519E1,3.7034912E1,3.201439E1,7.1087646E0,1.3816925E1,1.0491043E1,1.2727028E1,0E0,0E0,0E0,0E0,0E0,0E0,0E0,0E0],"parents":[2147483647,0,0,1,1,2,2,3,3,4,4,5,5,6,6],"right_children":[2,4,6,8,10,12,14,-1,-1,-1,-1,-1,-1,-1,-1],"split_conditions":[2.97E2,4.35E2,3.99E2,3E1,1.1E1,6.05E2,1.56E2,-2.6599664E-2,-8.0243744E-2,-5.0780308E-2,1.37605965E-2,-3.5450585E-2,-6.5133825E-2,4.730206E-3,-2.8066168E-2],"split_indices":[3,16,16,4,5,4,4,0,0,0,0,0,0,0,0],"split_type":[0,0,0,0,0,0,0,0,0,0,0,0,0,0,0],"sum_hessian":[3.0020413E3,1.5740286E3,1.4280128E3,9.232231E2,6.5080554E2,5.253012E2,9.027116E2,2.726283E1,8.959602E2,6.164061E2,3.4399414E1,1.9684093E2,3.2846027E2,1.3907687E2,7.636347E2],"tree_param":{"num_deleted":"0","num_feature":"33","num_nodes":"15","size_leaf_vector":"0"}},{"base_weights":[-4.6975347E-1,-1.18083015E-1,-5.2920556E-1,-5.090308E-1,-5.0407194E-2,-4.573816E-1,-7.358953E-1,-6.4702846E-2,-5.9941295E-4,7.4040936E-3,-2.5249058E-2,-3.276296E-2,-5.7286132E-2,-8.143992E-2,-4.791439E-2],"categories":[],"categories_nodes":[],"categories_segments":[],"categories_sizes":[],"default_left":[1,0,0,0,0,0,0,0,0,0,0,0,0,0,0],"id":20,"left_children":[1,3,5,7,9,11,13,-1,-1,-1,-1,-1,-1,-1,-1],"loss_changes":[6.0708862E1,1.109174E1,3.64859E1,4.23398E0,9.123344E0,2.743805E1,1.2374817E1,0E0,0E0,0E0,0E0,0E0,0E0,0E0,0E0],"parents":[2147483647,0,0,1,1,2,2,3,3,4,4,5,5,6,6],"right_children":[2,4,6,8,10,12,14,-1,-1,-1,-1,-1,-1,-1,-1],"split_conditions":[7E0,4.22E2,1E0,1E1,9.28E2,7E0,3E0,-6.4702846E-2,-5.9941295E-4,7.4040936E-3,-2.5249058E-2,-3.276296E-2,-5.7286132E-2,-8.143992E-2,-4.791439E-2],"split_indices":[2,15,19,6,4,8,5,0,0,0,0,0,0,0,0],"split_type":[0,0,0,0,0,0,0,0,0,0,0,0,0,0,0],"sum_hessian":[2.9087668E3,4.213094E2,2.4874575E3,6.098924E1,3.6032016E2,1.8487275E3,6.3872986E2,4.7479256E1,1.3509984E1,2.2308032E2,1.3723982E2,8.727811E2,9.759464E2,4.8720227E2,1.515276E2],"tree_param":{"num_deleted":"0","num_feature":"33","num_nodes":"15","size_leaf_vector":"0"}},{"base_weights":[-4.4591713E-1,-8.567538E-2,-5.6498694E-1,-2.5557736E-1,9.624341E-3,-4.4337612E-1,-6.8660706E-1,3.316354E-2,-3.0693164E-2,1.8278165E-2,-1.4238077E-2,-4.8455138E-2,-6.6395025E-3,-5.1259793E-2,-7.929699E-2],"categories":[],"categories_nodes":[],"categories_segments":[],"categories_sizes":[],"default_left":[0,1,1,0,0,1,0,0,0,0,0,0,0,0,0],"id":21,"left_children":[1,3,5,7,9,11,13,-1,-1,-1,-1,-1,-1,-1,-1],"loss_changes":[1.2032544E2,1.1343446E1,3.0789062E1,7.6854343E0,1.1830762E1,1.6339005E1,1.8946259E1,0E0,0E0,0E0,0E0,0E0,0E0,0E0,0E0],"parents":[2147483647,0,0,1,1,2,2,3,3,4,4,5,5,6,6],"right_children":[2,4,6,8,10,12,14,-1,-1,-1,-1,-1,-1,-1,-1],"split_conditions":[5.9E2,4.87E2,8.88E2,3.1E2,1.8E1,1.2817E4,6.52E2,3.316354E-2,-3.0693164E-2,1.8278165E-2,-1.4238077E-2,-4.8455138E-2,-6.6395025E-3,-5.1259793E-2,-7.929699E-2],"split_indices":[14,15,4,15,7,3,14,0,0,0,0,0,0,0,0],"split_type":[0,0,0,0,0,0,0,0,0,0,0,0,0,0,0],"sum_hessian":[2.8068315E3,6.979045E2,2.108927E3,2.5056337E2,4.4734113E2,1.0572378E3,1.0516893E3,1.9555063E1,2.310083E2,2.0933344E2,2.380077E2,9.5263666E2,1.0460108E2,4.015366E2,6.501528E2],"tree_param":{"num_deleted":"0","num_feature":"33","num_nodes":"15","size_leaf_vector":"0"}},{"base_weights":[-4.098427E-1,-1.8130349E-1,-6.159127E-1,-2.524413E-1,4.738876E-2,-7.643233E-1,-4.3197554E-1,1.4496349E-2,-3.1671125E-2,-1.1934125E-2,3.8485825E-2,-2.8307533E-2,-7.9957664E-2,-4.968896E-2,1.2853683E-3],"categories":[],"categories_nodes":[],"categories_segments":[],"categories_sizes":[],"default_left":[0,0,1,0,1,0,0,0,0,0,0,0,0,0,0],"id":22,"left_children":[1,3,5,7,9,11,13,-1,-1,-1,-1,-1,-1,-1,-1],"loss_changes":[1.2840631E2,2.1122513E1,3.8729614E1,2.533039E1,1.7407188E1,1.3114502E1,1.8636543E1,0E0,0E0,0E0,0E0,0E0,0E0,0E0,0E0],"parents":[2147483647,0,0,1,1,2,2,3,3,4,4,5,5,6,6],"right_children":[2,4,6,8,10,12,14,-1,-1,-1,-1,-1,-1,-1,-1],"split_conditions":[6.35E2,5.11E2,4.2E2,2E0,5.7E1,5.75E2,5.88E2,1.4496349E-2,-3.1671125E-2,-1.1934125E-2,3.8485825E-2,-2.8307533E-2,-7.9957664E-2,-4.968896E-2,1.2853683E-3],"split_indices":[14,16,16,2,2,13,16,0,0,0,0,0,0,0,0],"split_type":[0,0,0,0,0,0,0,0,0,0,0,0,0,0,0],"sum_hessian":[2.729597E3,1.2953601E3,1.4342369E3,9.8827673E2,3.0708334E2,7.9172815E2,6.425087E2,1.3718709E2,8.5108966E2,2.0577051E2,1.01312836E2,5.484865E1,7.368795E2,5.607815E2,8.172724E1],"tree_param":{"num_deleted":"0","num_feature":"33","num_nodes":"15","size_leaf_vector":"0"}},{"base_weights":[-3.8236052E-1,-2.4053505E-1,-5.4375136E-1,-1.5587176E-1,-4.3457907E-1,-3.0332854E-1,-6.307499E-1,8.259434E-4,-2.1458646E-2,-1.3861847E-2,-5.472972E-2,-1.1369829E-2,-5.0572783E-2,-5.122326E-2,-7.453721E-2],"categories":[],"categories_nodes":[],"categories_segments":[],"categories_sizes":[],"default_left":[0,1,0,1,0,0,0,0,0,0,0,0,0,0,0],"id":23,"left_children":[1,3,5,7,9,11,13,-1,-1,-1,-1,-1,-1,-1,-1],"loss_changes":[6.009079E1,2.2944038E1,2.5465271E1,9.4632E0,1.4056129E1,1.2521063E1,1.17560425E1,0E0,0E0,0E0,0E0,0E0,0E0,0E0,0E0],"parents":[2147483647,0,0,1,1,2,2,3,3,4,4,5,5,6,6],"right_children":[2,4,6,8,10,12,14,-1,-1,-1,-1,-1,-1,-1,-1],"split_conditions":[6.29E2,1.0999E4,1.417E3,7E0,5.67E2,6.75E2,8E0,8.259434E-4,-2.1458646E-2,-1.3861847E-2,-5.472972E-2,-1.1369829E-2,-5.0572783E-2,-5.122326E-2,-7.453721E-2],"split_indices":[13,1,1,2,13,13,8,0,0,0,0,0,0,0,0],"split_type":[0,0,0,0,0,0,0,0,0,0,0,0,0,0,0],"sum_hessian":[2.6334153E3,1.4033251E3,1.2300903E3,9.786495E2,4.2467557E2,3.2834253E2,9.017478E2,2.5762894E2,7.2102057E2,1.1798991E2,3.0668567E2,1.7058E2,1.5776254E2,4.4645892E2,4.5528888E2],"tree_param":{"num_deleted":"0","num_feature":"33","num_nodes":"15","size_leaf_vector":"0"}},{"base_weights":[-3.3613575E-1,-1.5378848E-1,-5.782073E-1,3.1226331E-2,-2.5487965E-1,-1.6657539E-1,-6.2396395E-1,2.3057682E-2,-1.4697454E-2,-3.352223E-2,-3.7458872E-3,5.064429E-2,-4.1500617E-2,-6.6493586E-2,-3.412453E-2],"categories":[],"categories_nodes":[],"categories_segments":[],"categories_sizes":[],"default_left":[0,0,1,0,1,0,0,0,0,0,0,0,0,0,0],"id":24,"left_children":[1,3,5,7,9,11,13,-1,-1,-1,-1,-1,-1,-1,-1],"loss_changes":[1.1160898E2,2.7072128E1,2.0296326E1,1.8209505E1,1.6290314E1,1.8652372E1,1.100058E1,0E0,0E0,0E0,0E0,0E0,0E0,0E0,0E0],"parents":[2147483647,0,0,1,1,2,2,3,3,4,4,5,5,6,6],"right_children":[2,4,6,8,10,12,14,-1,-1,-1,-1,-1,-1,-1,-1],"split_conditions":[6.55E2,5.77E2,7E0,7E0,6.8E1,8E0,9.4E1,2.3057682E-2,-1.4697454E-2,-3.352223E-2,-3.7458872E-3,5.064429E-2,-4.1500617E-2,-6.6493586E-2,-3.412453E-2],"split_indices":[14,14,2,10,2,7,2,0,0,0,0,0,0,0,0],"split_type":[0,0,0,0,0,0,0,0,0,0,0,0,0,0,0],"sum_hessian":[2.531133E3,1.4448256E3,1.0863075E3,5.104017E2,9.344238E2,1.0935592E2,9.769516E2,2.4103117E2,2.693705E2,6.815658E2,2.5285805E2,2.9094788E1,8.026113E1,8.5180206E2,1.2514955E2],"tree_param":{"num_deleted":"0","num_feature":"33","num_nodes":"15","size_leaf_vector":"0"}},{"base_weights":[-3.5999787E-1,-2.0169577E-1,-5.924868E-1,-2.8848976E-1,-1.7947184E-2,-7.008193E-1,-3.5117573E-1,-1.2109603E-2,-3.8637336E-2,-6.53235E-3,6.3514166E-2,-2.0740235E-2,-7.3826484E-2,-1.7314663E-2,-5.9612103E-2],"categories":[],"categories_nodes":[],"categories_segments":[],"categories_sizes":[],"default_left":[0,1,0,1,1,1,0,0,0,0,0,0,0,0,0],"id":25,"left_children":[1,3,5,7,9,11,13,-1,-1,-1,-1,-1,-1,-1,-1],"loss_changes":[9.181717E1,2.3714157E1,2.6104553E1,1.6467781E1,1.4811072E1,1.263327E1,1.3593216E1,0E0,0E0,0E0,0E0,0E0,0E0,0E0,0E0],"parents":[2147483647,0,0,1,1,2,2,3,3,4,4,5,5,6,6],"right_children":[2,4,6,8,10,12,14,-1,-1,-1,-1,-1,-1,-1,-1],"split_conditions":[6.59E2,4.79E2,4.56E2,6.32E2,1.7E1,2E0,1.012E3,-1.2109603E-2,-3.8637336E-2,-6.53235E-3,6.3514166E-2,-2.0740235E-2,-7.3826484E-2,-1.7314663E-2,-5.9612103E-2],"split_indices":[14,16,16,4,17,2,4,0,0,0,0,0,0,0,0],"split_type":[0,0,0,0,0,0,0,0,0,0,0,0,0,0,0],"sum_hessian":[2.4992002E3,1.4881881E3,1.011012E3,1.0099989E3,4.7818918E2,6.9616296E2,3.1484906E2,3.738778E2,6.361211E2,4.4682846E2,3.1360704E1,4.9755005E1,6.4640796E2,1.8355458E2,1.3129448E2],"tree_param":{"num_deleted":"0","num_feature":"33","num_nodes":"15","size_leaf_vector":"0"}},{"base_weights":[-2.9851812E-1,-1.3828023E-1,-5.108413E-1,2.2929786E-2,-2.279554E-1,-3.8102904E-1,-6.550779E-1,4.6213206E-2,-1.9244585E-3,-6.361893E-3,-3.1360816E-2,8.175142E-3,-4.3669473E-2,-7.487454E-2,-4.458451E-2],"categories":[],"categories_nodes":[],"categories_segments":[],"categories_sizes":[],"default_left":[0,0,1,0,1,0,0,0,0,0,0,0,0,0,0],"id":26,"left_children":[1,3,5,7,9,11,13,-1,-1,-1,-1,-1,-1,-1,-1],"loss_changes":[8.2345184E1,2.002293E1,1.9157928E1,9.22094E0,1.2460377E1,1.42708435E1,9.186142E0,0E0,0E0,0E0,0E0,0E0,0E0,0E0,0E0],"parents":[2147483647,0,0,1,1,2,2,3,3,4,4,5,5,6,6],"right_children":[2,4,6,8,10,12,14,-1,-1,-1,-1,-1,-1,-1,-1],"split_conditions":[6.5E2,5.75E2,6.339E3,3.16E2,3E0,5.95E2,1.24E2,4.6213206E-2,-1.9244585E-3,-6.361893E-3,-3.1360816E-2,8.175142E-3,-4.3669473E-2,-7.487454E-2,-4.458451E-2],"split_indices":[14,14,1,1,18,13,3,0,0,0,0,0,0,0,0],"split_type":[0,0,0,0,0,0,0,0,0,0,0,0,0,0,0],"sum_hessian":[2.4233198E3,1.3822637E3,1.0410563E3,4.9393698E2,8.8832666E2,5.502073E2,4.9084897E2,4.2610134E1,4.5132684E2,3.0536078E2,5.829659E2,5.8832687E1,4.913746E2,3.3694977E2,1.5389923E2],"tree_param":{"num_deleted":"0","num_feature":"33","num_nodes":"15","size_leaf_vector":"0"}},{"base_weights":[-2.8986484E-1,-1.7736581E-1,-4.3931255E-1,-1.2197048E-1,-4.6366847E-1,-3.774596E-1,-7.662643E-1,-2.1872172E-2,1.503252E-3,-5.7344705E-2,6.505122E-3,-2.6801078E-2,-5.53913E-2,-9.424348E-2,-6.0307574E-2],"categories":[],"categories_nodes":[],"categories_segments":[],"categories_sizes":[],"default_left":[0,1,0,1,1,0,1,0,0,0,0,0,0,0,0],"id":27,"left_children":[1,3,5,7,9,11,13,-1,-1,-1,-1,-1,-1,-1,-1],"loss_changes":[3.9540253E1,2.1272888E1,2.0072998E1,1.5023088E1,1.2739967E1,1.625637E1,3.872696E0,0E0,0E0,0E0,0E0,0E0,0E0,0E0,0E0],"parents":[2147483647,0,0,1,1,2,2,3,3,4,4,5,5,6,6],"right_children":[2,4,6,8,10,12,14,-1,-1,-1,-1,-1,-1,-1,-1],"split_conditions":[6.32E2,3.7E1,1E0,4E0,1.3E1,2.1E1,4.74E2,-2.1872172E-2,1.503252E-3,-5.7344705E-2,6.505122E-3,-2.6801078E-2,-5.53913E-2,-9.424348E-2,-6.0307574E-2],"split_indices":[13,7,26,17,17,7,15,0,0,0,0,0,0,0,0],"split_type":[0,0,0,0,0,0,0,0,0,0,0,0,0,0,0],"sum_hessian":[2.359108E3,1.3475643E3,1.0115436E3,1.1305876E3,2.1697668E2,8.526912E2,1.5885237E2,6.627139E2,4.6787375E2,1.7975792E2,3.721877E1,5.281691E2,3.2452206E2,7.379691E1,8.505546E1],"tree_param":{"num_deleted":"0","num_feature":"33","num_nodes":"15","size_leaf_vector":"0"}},{"base_weights":[-2.4913555E-1,-1.03087865E-1,-4.7192666E-1,-6.173393E-2,-5.1073027E-1,-1.7214622E-1,-5.528474E-1,1.4286029E-2,-1.45557895E-2,-0E0,-6.916144E-2,-2.5382314E-2,5.4172434E-2,-6.048873E-2,-2.1744143E-2],"categories":[],"categories_nodes":[],"categories_segments":[],"categories_sizes":[],"default_left":[0,0,0,0,1,0,1,0,0,0,0,0,0,0,0],"id":28,"left_children":[1,3,5,7,9,11,13,-1,-1,-1,-1,-1,-1,-1,-1],"loss_changes":[7.484871E1,2.3393944E1,2.1946274E1,2.1733932E1,1.1808044E1,1.15065975E1,1.2303146E1,0E0,0E0,0E0,0E0,0E0,0E0,0E0,0E0],"parents":[2147483647,0,0,1,1,2,2,3,3,4,4,5,5,6,6],"right_children":[2,4,6,8,10,12,14,-1,-1,-1,-1,-1,-1,-1,-1],"split_conditions":[6.56E2,1E0,3E0,5.67E2,1.2E1,5.154E3,5E0,1.4286029E-2,-1.45557895E-2,-0E0,-6.916144E-2,-2.5382314E-2,5.4172434E-2,-6.048873E-2,-2.1744143E-2],"split_indices":[14,20,8,14,7,3,5,0,0,0,0,0,0,0,0],"split_type":[0,0,0,0,0,0,0,0,0,0,0,0,0,0,0],"sum_hessian":[2.302601E3,1.3920035E3,9.1059753E2,1.2650638E3,1.2693966E2,1.9448143E2,7.161161E2,3.671184E2,8.9794543E2,3.3485035E1,9.345462E1,1.7521848E2,1.9262957E1,6.189771E2,9.713896E1],"tree_param":{"num_deleted":"0","num_feature":"33","num_nodes":"15","size_leaf_vector":"0"}},{"base_weights":[-2.2659978E-1,-3.925795E-1,-8.5342124E-2,-5.6278414E-1,-2.0567839E-1,4.2505633E-2,-2.4568522E-1,-5.7592608E-2,6.947208E-2,-5.7833144E-3,-3.5427727E-2,5.2436796E-4,6.773651E-2,-7.855041E-3,-3.832078E-2],"categories":[],"categories_nodes":[],"categories_segments":[],"categories_sizes":[],"default_left":[0,1,0,1,0,0,0,0,0,0,0,0,0,0,0],"id":29,"left_children":[1,3,5,7,9,11,13,-1,-1,-1,-1,-1,-1,-1,-1],"loss_changes":[5.3345276E1,3.3116364E1,2.5299286E1,9.430634E0,1.0943235E1,1.6163841E1,1.2503788E1,0E0,0E0,0E0,0E0,0E0,0E0,0E0,0E0],"parents":[2147483647,0,0,1,1,2,2,3,3,4,4,5,5,6,6],"right_children":[2,4,6,8,10,12,14,-1,-1,-1,-1,-1,-1,-1,-1],"split_conditions":[4.2E2,3.19E2,9.13E2,2.1E1,8.02E2,2.309E4,6.09E2,-5.7592608E-2,6.947208E-2,-5.7833144E-3,-3.5427727E-2,5.2436796E-4,6.773651E-2,-7.855041E-3,-3.832078E-2],"split_indices":[16,3,4,17,4,3,13,0,0,0,0,0,0,0,0],"split_type":[0,0,0,0,0,0,0,0,0,0,0,0,0,0,0],"sum_hessian":[2.2777163E3,1.0460757E3,1.2316407E3,5.461599E2,4.999158E2,6.853199E2,5.463208E2,5.411262E2,5.0336814E0,2.5162701E2,2.4828879E2,6.4842737E2,3.6892525E1,2.476471E2,2.9867374E2],"tree_param":{"num_deleted":"0","num_feature":"33","num_nodes":"15","size_leaf_vector":"0"}},{"base_weights":[-2.194736E-1,-6.590385E-2,-3.521025E-1,3.3031768E-1,-1.0400518E-1,-4.6643582E-1,-9.7506404E-2,2.950467E-3,6.8855606E-2,-3.948092E-3,-3.2065876E-2,-1.6374735E-2,-5.463273E-2,-3.590795E-3,-5.3010758E-2],"categories":[],"categories_nodes":[],"categories_segments":[],"categories_sizes":[],"default_left":[0,0,1,0,1,1,1,0,0,0,0,0,0,0,0],"id":30,"left_children":[1,3,5,7,9,11,13,-1,-1,-1,-1,-1,-1,-1,-1],"loss_changes":[4.5217514E1,1.5589337E1,3.4606827E1,9.663683E0,1.3124602E1,1.9725006E1,9.812204E0,0E0,0E0,0E0,0E0,0E0,0E0,0E0,0E0],"parents":[2147483647,0,0,1,1,2,2,3,3,4,4,5,5,6,6],"right_children":[2,4,6,8,10,12,14,-1,-1,-1,-1,-1,-1,-1,-1],"split_conditions":[6.23E2,5.22E2,4.63E2,2.974E3,1.5E1,2.2E1,3.6E1,2.950467E-3,6.8855606E-2,-3.948092E-3,-3.2065876E-2,-1.6374735E-2,-5.463273E-2,-3.590795E-3,-5.3010758E-2],"split_indices":[14,14,16,3,10,2,7,0,0,0,0,0,0,0,0],"split_type":[0,0,0,0,0,0,0,0,0,0,0,0,0,0,0],"sum_hessian":[2.222242E3,1.0308645E3,1.1913774E3,8.953039E1,9.4133417E2,8.2131757E2,3.7005988E2,4.9405804E1,4.012458E1,7.265848E2,2.1474934E2,1.7240822E2,6.4890936E2,3.250849E2,4.497496E1],"tree_param":{"num_deleted":"0","num_feature":"33","num_nodes":"15","size_leaf_vector":"0"}},{"base_weights":[-2.1054362E-1,-8.690929E-2,-3.9282048E-1,-3.8636073E-2,-3.796493E-1,-4.4677705E-1,2.4303989E-1,6.5281655E-4,-4.2381287E-2,3.2431085E-2,-4.469588E-2,-5.677395E-2,-2.5268292E-2,8.374587E-2,-8.083761E-3],"categories":[],"categories_nodes":[],"categories_segments":[],"categories_sizes":[],"default_left":[0,0,1,0,0,1,1,0,0,0,0,0,0,0,0],"id":31,"left_children":[1,3,5,7,9,11,13,-1,-1,-1,-1,-1,-1,-1,-1],"loss_changes":[4.9196587E1,1.8378784E1,3.0428635E1,1.9550674E1,8.888205E0,1.8898926E1,1.35390415E1,0E0,0E0,0E0,0E0,0E0,0E0,0E0,0E0],"parents":[2147483647,0,0,1,1,2,2,3,3,4,4,5,5,6,6],"right_children":[2,4,6,8,10,12,14,-1,-1,-1,-1,-1,-1,-1,-1],"split_conditions":[6.49E2,1E0,5.75E2,1E0,5.24E2,1.31E2,4.4E2,6.5281655E-4,-4.2381287E-2,3.2431085E-2,-4.469588E-2,-5.677395E-2,-2.5268292E-2,8.374587E-2,-8.083761E-3],"split_indices":[14,26,16,20,14,3,4,0,0,0,0,0,0,0,0],"split_type":[0,0,0,0,0,0,0,0,0,0,0,0,0,0,0],"sum_hessian":[2.185697E3,1.303552E3,8.821449E2,1.1202886E3,1.8326346E2,8.135638E2,6.858112E1,1.00336194E3,1.1692665E2,1.5530706E1,1.6773276E2,4.9970166E2,3.1386212E2,2.3737764E1,4.484336E1],"tree_param":{"num_deleted":"0","num_feature":"33","num_nodes":"15","size_leaf_vector":"0"}},{"base_weights":[-1.8292992E-1,-3.5540316E-1,-4.1767865E-2,-2.1655835E-1,-6.0754734E-1,8.770416E-3,-3.9067754E-1,1.3234962E-3,-3.200732E-2,-7.132614E-2,-3.714822E-2,-1.4140623E-3,9.3501955E-2,-4.9269285E-2,1.7624503E-2],"categories":[],"categories_nodes":[],"categories_segments":[],"categories_sizes":[],"default_left":[0,0,0,0,1,1,1,0,0,0,0,0,0,0,0],"id":32,"left_children":[1,3,5,7,9,11,13,-1,-1,-1,-1,-1,-1,-1,-1],"loss_changes":[5.2110435E1,3.3530876E1,2.0843594E1,1.4864061E1,8.148331E0,2.1988125E1,8.766407E0,0E0,0E0,0E0,0E0,0E0,0E0,0E0,0E0],"parents":[2147483647,0,0,1,1,2,2,3,3,4,4,5,5,6,6],"right_children":[2,4,6,8,10,12,14,-1,-1,-1,-1,-1,-1,-1,-1],"split_conditions":[4.2E2,6.44E2,1E0,5.72E2,1.2E1,7.25E2,9.364E3,1.3234962E-3,-3.200732E-2,-7.132614E-2,-3.714822E-2,-1.4140623E-3,9.3501955E-2,-4.9269285E-2,1.7624503E-2],"split_indices":[16,13,26,13,12,16,3,0,0,0,0,0,0,0,0],"split_type":[0,0,0,0,0,0,0,0,0,0,0,0,0,0,0],"sum_hessian":[2.141592E3,9.6289325E2,1.1786989E3,6.22413E2,3.4048022E2,1.0301707E3,1.4852817E2,1.9327245E2,4.291406E2,2.3347922E2,1.07001E2,1.0061598E3,2.401088E1,1.2613758E2,2.2390593E1],"tree_param":{"num_deleted":"0","num_feature":"33","num_nodes":"15","size_leaf_vector":"0"}},{"base_weights":[-1.5258649E-1,-2.9021132E-1,-3.1601127E-2,-1.5821533E-6,-3.426357E-1,-6.6094756E-2,2.8076705E-1,-1.4143783E-2,3.6755826E-2,-1.6988132E-2,-4.6001285E-2,1.1301998E-2,-1.229099E-2,1.1368855E-2,7.875439E-2],"categories":[],"categories_nodes":[],"categories_segments":[],"categories_sizes":[],"default_left":[0,0,1,1,0,1,0,0,0,0,0,0,0,0,0],"id":33,"left_children":[1,3,5,7,9,11,13,-1,-1,-1,-1,-1,-1,-1,-1],"loss_changes":[3.492362E1,1.4904381E1,1.2054289E1,7.9066467E0,1.6716919E1,1.0281305E1,9.234443E0,0E0,0E0,0E0,0E0,0E0,0E0,0E0,0E0],"parents":[2147483647,0,0,1,1,2,2,3,3,4,4,5,5,6,6],"right_children":[2,4,6,8,10,12,14,-1,-1,-1,-1,-1,-1,-1,-1],"split_conditions":[2.73E2,4E0,9.4E1,6.8E1,1.4E1,7E0,1.4347E4,-1.4143783E-2,3.6755826E-2,-1.6988132E-2,-4.6001285E-2,1.1301998E-2,-1.229099E-2,1.1368855E-2,7.875439E-2],"split_indices":[3,18,2,2,7,2,3,0,0,0,0,0,0,0,0],"split_type":[0,0,0,0,0,0,0,0,0,0,0,0,0,0,0],"sum_hessian":[2.0989243E3,9.8089685E2,1.1180275E3,1.5052599E2,8.3037085E2,1.00784375E3,1.1018379E2,1.093396E2,4.1186382E1,3.3727405E2,4.930968E2,2.4204045E2,7.658033E2,8.3933525E1,2.6250263E1],"tree_param":{"num_deleted":"0","num_feature":"33","num_nodes":"15","size_leaf_vector":"0"}},{"base_weights":[-1.3227418E-1,-3.7358177E-1,-3.4834012E-2,-5.9267926E-1,-2.6320687E-1,3.8616464E-3,-3.1539115E-1,-2.910598E-2,-6.645001E-2,1.686338E-2,-3.296585E-2,5.7998947E-3,-1.871288E-2,7.502859E-2,-3.7218045E-2],"categories":[],"categories_nodes":[],"categories_segments":[],"categories_sizes":[],"default_left":[1,1,0,1,1,0,0,0,0,0,0,0,0,0,0],"id":34,"left_children":[1,3,5,7,9,11,13,-1,-1,-1,-1,-1,-1,-1,-1],"loss_changes":[4.9004906E1,1.4262444E1,1.6183172E1,4.039688E0,1.1577362E1,1.3522695E1,1.1173763E1,0E0,0E0,0E0,0E0,0E0,0E0,0E0,0E0],"parents":[2147483647,0,0,1,1,2,2,3,3,4,4,5,5,6,6],"right_children":[2,4,6,8,10,12,14,-1,-1,-1,-1,-1,-1,-1,-1],"split_conditions":[3.81E2,1E0,1.9E1,1.99E3,3.16E2,3.4E1,5.27E2,-2.910598E-2,-6.645001E-2,1.686338E-2,-3.296585E-2,5.7998947E-3,-1.871288E-2,7.502859E-2,-3.7218045E-2],"split_indices":[16,12,8,1,1,17,13,0,0,0,0,0,0,0,0],"split_type":[0,0,0,0,0,0,0,0,0,0,0,0,0,0,0],"sum_hessian":[2.0854482E3,5.9876495E2,1.4866832E3,1.9882182E2,3.999431E2,1.3070404E3,1.796429E2,3.9477314E1,1.5934451E2,5.2930157E1,3.4701297E2,1.01932654E3,2.8771384E2,8.3818035E0,1.712611E2],"tree_param":{"num_deleted":"0","num_feature":"33","num_nodes":"15","size_leaf_vector":"0"}},{"base_weights":[-1.3466561E-1,-2.3707683E-1,1.7302396E-2,-1.7516851E-1,-5.649245E-1,1.5297383E-1,-1.6737226E-1,-2.8260792E-2,-2.3259113E-4,-5.9734847E-2,5.245557E-2,1.0182469E-2,7.262856E-2,-1.95433E-3,-4.57486E-2],"categories":[],"categories_nodes":[],"categories_segments":[],"categories_sizes":[],"default_left":[0,0,0,0,1,1,1,0,0,0,0,0,0,0,0],"id":35,"left_children":[1,3,5,7,9,11,13,-1,-1,-1,-1,-1,-1,-1,-1],"loss_changes":[3.21357E1,2.485292E1,2.0848866E1,1.9262787E1,7.2141533E0,1.3918479E1,1.5047072E1,0E0,0E0,0E0,0E0,0E0,0E0,0E0,0E0],"parents":[2147483647,0,0,1,1,2,2,3,3,4,4,5,5,6,6],"right_children":[2,4,6,8,10,12,14,-1,-1,-1,-1,-1,-1,-1,-1],"split_conditions":[1.389E3,1E0,6.01E2,4.64E2,6.25E2,9.3E1,1E1,-2.8260792E-2,-2.3259113E-4,-5.9734847E-2,5.245557E-2,1.0182469E-2,7.262856E-2,-1.95433E-3,-4.57486E-2],"split_indices":[3,26,13,16,15,2,8,0,0,0,0,0,0,0,0],"split_type":[0,0,0,0,0,0,0,0,0,0,0,0,0,0,0],"sum_hessian":[2.062172E3,1.2320151E3,8.3015704E2,1.0378707E3,1.9414449E2,4.78984E2,3.51173E2,6.392794E2,3.9859125E2,1.8906134E2,5.083148E0,4.4099207E2,3.7991943E1,2.3356883E2,1.1760416E2],"tree_param":{"num_deleted":"0","num_feature":"33","num_nodes":"15","size_leaf_vector":"0"}},{"base_weights":[-1.20221995E-1,-3.5371152E-1,-3.215385E-2,1.1785523E-1,-4.222874E-1,2.2048263E-3,-4.1033143E-1,-6.873752E-2,3.5536658E-2,3.3938934E-3,-4.9280316E-2,3.6690831E-3,-3.330351E-2,-5.0097074E-2,6.2407352E-2],"categories":[],"categories_nodes":[],"categories_segments":[],"categories_sizes":[],"default_left":[0,0,1,0,0,0,1,0,0,0,0,0,0,0,0],"id":36,"left_children":[1,3,5,7,9,11,13,-1,-1,-1,-1,-1,-1,-1,-1],"loss_changes":[4.206305E1,1.8205566E1,1.9382883E1,1.393459E1,1.5818062E1,1.57667675E1,1.194692E1,0E0,0E0,0E0,0E0,0E0,0E0,0E0,0E0],"parents":[2147483647,0,0,1,1,2,2,3,3,4,4,5,5,6,6],"right_children":[2,4,6,8,10,12,14,-1,-1,-1,-1,-1,-1,-1,-1],"split_conditions":[3.83E2,5.58E2,6.79E2,4.32E2,5.69E2,1E0,6.09E2,-6.873752E-2,3.5536658E-2,3.3938934E-3,-4.9280316E-2,3.6690831E-3,-3.330351E-2,-5.0097074E-2,6.2407352E-2],"split_indices":[16,14,14,15,13,20,16,0,0,0,0,0,0,0,0],"split_type":[0,0,0,0,0,0,0,0,0,0,0,0,0,0,0],"sum_hessian":[2.0470006E3,5.5949506E2,1.4875056E3,7.075647E1,4.8873856E2,1.3642855E3,1.2322007E2,1.5589286E1,5.5167187E1,6.530777E1,4.234308E2,1.2381105E3,1.2617512E2,1.13855865E2,9.364203E0],"tree_param":{"num_deleted":"0","num_feature":"33","num_nodes":"15","size_leaf_vector":"0"}},{"base_weights":[-9.503267E-2,9.871782E-2,-1.8506414E-1,-8.070216E-1,1.16288446E-1,-3.3105808E-1,-6.309945E-2,-4.4962965E-2,-9.8976485E-2,-1.970388E-2,1.6342953E-2,-2.7086852E-2,-7.826303E-2,3.393926E-2,-1.2643415E-2],"categories":[],"categories_nodes":[],"categories_segments":[],"categories_sizes":[],"default_left":[0,0,0,0,1,1,1,0,0,0,0,0,0,0,0],"id":37,"left_children":[1,3,5,7,9,11,13,-1,-1,-1,-1,-1,-1,-1,-1],"loss_changes":[3.49189E1,1.0128784E1,2.4269474E1,2.0127916E-1,9.242692E0,1.6569908E1,1.9039967E1,0E0,0E0,0E0,0E0,0E0,0E0,0E0,0E0],"parents":[2147483647,0,0,1,1,2,2,3,3,4,4,5,5,6,6],"right_children":[2,4,6,8,10,12,14,-1,-1,-1,-1,-1,-1,-1,-1],"split_conditions":[5.9E2,2.77E2,4.2E2,1.708E3,5.225E3,6.88E2,1.02E2,-4.4962965E-2,-9.8976485E-2,-1.970388E-2,1.6342953E-2,-2.7086852E-2,-7.826303E-2,3.393926E-2,-1.2643415E-2],"split_indices":[14,16,16,3,0,14,4,0,0,0,0,0,0,0,0],"split_type":[0,0,0,0,0,0,0,0,0,0,0,0,0,0,0],"sum_hessian":[1.9992701E3,6.3389703E2,1.365373E3,1.1099755E1,6.227973E2,6.20313E2,7.450601E2,5.111272E0,5.9884834E0,8.075449E1,5.420428E2,5.489635E2,7.1349464E1,1.00492516E2,6.445676E2],"tree_param":{"num_deleted":"0","num_feature":"33","num_nodes":"15","size_leaf_vector":"0"}},{"base_weights":[-1.4197563E-1,-2.050689E-1,5.9330016E-2,-1.677806E-1,-5.691996E-1,7.542971E-1,2.4804572E-2,-1.1682036E-2,-4.2337615E-2,-2.6479209E-2,-7.062761E-2,2.721027E-2,1.0706695E-1,3.544894E-2,-4.358788E-3],"categories":[],"categories_nodes":[],"categories_segments":[],"categories_sizes":[],"default_left":[1,0,0,0,1,0,0,0,0,0,0,0,0,0,0],"id":38,"left_children":[1,3,5,7,9,11,13,-1,-1,-1,-1,-1,-1,-1,-1],"loss_changes":[2.5237698E1,2.0358952E1,1.1278118E1,1.7781616E1,5.5482445E0,2.971058E0,1.0256245E1,0E0,0E0,0E0,0E0,0E0,0E0,0E0,0E0],"parents":[2147483647,0,0,1,1,2,2,3,3,4,4,5,5,6,6],"right_children":[2,4,6,8,10,12,14,-1,-1,-1,-1,-1,-1,-1,-1],"split_conditions":[4.975E3,1E0,5.356E3,1E0,4E0,2.5E1,5.45E2,-1.1682036E-2,-4.2337615E-2,-2.6479209E-2,-7.062761E-2,2.721027E-2,1.0706695E-1,3.544894E-2,-4.358788E-3],"split_indices":[3,20,3,26,8,2,13,0,0,0,0,0,0,0,0],"split_type":[0,0,0,0,0,0,0,0,0,0,0,0,0,0,0],"sum_hessian":[1.983953E3,1.5108881E3,4.7306503E2,1.3721139E3,1.387741E2,2.1265482E1,4.5179953E2,1.1455619E3,2.2655202E2,4.4224777E1,9.454932E1,9.286998E0,1.1978484E1,7.715482E1,3.746447E2],"tree_param":{"num_deleted":"0","num_feature":"33","num_nodes":"15","size_leaf_vector":"0"}},{"base_weights":[-1.0200918E-1,4.991453E-2,-2.0661654E-1,9.0373546E-2,-3.7173358E-1,-1.5074854E-1,-5.048042E-1,1.4875473E-2,-1.6492132E-2,3.984458E-3,-4.9116876E-2,-1.7259456E-2,5.2027E-2,-5.7151493E-2,-5.3759264E-3],"categories":[],"categories_nodes":[],"categories_segments":[],"categories_sizes":[],"default_left":[0,1,0,1,0,1,1,0,0,0,0,0,0,0,0],"id":39,"left_children":[1,3,5,7,9,11,13,-1,-1,-1,-1,-1,-1,-1,-1],"loss_changes":[3.1280535E1,1.3693404E1,1.9270851E1,1.09499035E1,3.516943E0,1.446653E1,5.4181213E0,0E0,0E0,0E0,0E0,0E0,0E0,0E0,0E0],"parents":[2147483647,0,0,1,1,2,2,3,3,4,4,5,5,6,6],"right_children":[2,4,6,8,10,12,14,-1,-1,-1,-1,-1,-1,-1,-1],"split_conditions":[6.07E2,2.429E3,1E0,1.8E1,8E0,6.66E2,5.1E2,1.4875473E-2,-1.6492132E-2,3.984458E-3,-4.9116876E-2,-1.7259456E-2,5.2027E-2,-5.7151493E-2,-5.3759264E-3],"split_indices":[14,4,26,10,8,16,16,0,0,0,0,0,0,0,0],"split_type":[0,0,0,0,0,0,0,0,0,0,0,0,0,0,0],"sum_hessian":[1.9656427E3,8.0136646E2,1.1642762E3,7.3213745E2,6.922902E1,9.821104E2,1.8216583E2,5.9653094E2,1.356065E2,1.5532508E1,5.3696514E1,9.520082E2,3.0102247E1,1.5826868E2,2.3897154E1],"tree_param":{"num_deleted":"0","num_feature":"33","num_nodes":"15","size_leaf_vector":"0"}},{"base_weights":[-1.0743485E-1,-4.3551028E-2,-2.8296077E-1,4.4285563E-1,-6.393556E-2,-3.8416952E-1,2.731411E-2,6.516827E-2,-1.0092435E-2,-6.562282E-2,-4.9823034E-3,-4.4866685E-2,-2.8885747E-3,1.2532723E-2,-6.636169E-2],"categories":[],"categories_nodes":[],"categories_segments":[],"categories_sizes":[],"default_left":[0,0,0,0,0,1,1,0,0,0,0,0,0,0,0],"id":40,"left_children":[1,3,5,7,9,11,13,-1,-1,-1,-1,-1,-1,-1,-1],"loss_changes":[2.207132E1,1.4344001E1,1.6554344E1,6.7248974E0,1.1519382E1,9.029709E0,8.832364E0,0E0,0E0,0E0,0E0,0E0,0E0,0E0,0E0],"parents":[2147483647,0,0,1,1,2,2,3,3,4,4,5,5,6,6],"right_children":[2,4,6,8,10,12,14,-1,-1,-1,-1,-1,-1,-1,-1],"split_conditions":[6.52E2,5E0,5.06E2,6.25E2,2.77E2,5E0,1.1E1,6.516827E-2,-1.0092435E-2,-6.562282E-2,-4.9823034E-3,-4.4866685E-2,-2.8885747E-3,1.2532723E-2,-6.636169E-2],"split_indices":[13,7,16,13,16,5,10,0,0,0,0,0,0,0,0],"split_type":[0,0,0,0,0,0,0,0,0,0,0,0,0,0,0],"sum_hessian":[1.971333E3,1.4466376E3,5.246954E2,5.7156807E1,1.3894808E3,3.9570447E2,1.289909E2,4.128692E1,1.5869888E1,3.1112831E1,1.3583679E3,3.344457E2,6.1258743E1,1.1380961E2,1.5181302E1],"tree_param":{"num_deleted":"0","num_feature":"33","num_nodes":"15","size_leaf_vector":"0"}},{"base_weights":[-8.106712E-2,8.150574E-3,-2.4896632E-1,3.5059307E-2,-3.4951866E-1,1.4925982E-1,-3.2188728E-1,3.1971406E-2,3.5548134E-4,-5.2313055E-3,-5.090208E-2,-5.7955575E-3,7.31731E-2,-5.6438327E-2,-2.4710247E-2],"categories":[],"categories_nodes":[],"categories_segments":[],"categories_sizes":[],"default_left":[0,1,1,0,0,1,1,0,0,0,0,0,0,0,0],"id":41,"left_children":[1,3,5,7,9,11,13,-1,-1,-1,-1,-1,-1,-1,-1],"loss_changes":[2.929882E1,1.2268019E1,1.9768444E1,1.0624984E1,4.143818E0,1.2841554E1,1.0189251E1,0E0,0E0,0E0,0E0,0E0,0E0,0E0,0E0],"parents":[2147483647,0,0,1,1,2,2,3,3,4,4,5,5,6,6],"right_children":[2,4,6,8,10,12,14,-1,-1,-1,-1,-1,-1,-1,-1],"split_conditions":[6.56E2,2.3E1,2E0,5.41E2,5.72E2,5.1E2,3.49E2,3.1971406E-2,3.5548134E-4,-5.2313055E-3,-5.090208E-2,-5.7955575E-3,7.31731E-2,-5.6438327E-2,-2.4710247E-2],"split_indices":[14,8,8,13,13,16,16,0,0,0,0,0,0,0,0],"split_type":[0,0,0,0,0,0,0,0,0,0,0,0,0,0,0],"sum_hessian":[1.9531744E3,1.2756694E3,6.77505E2,1.1875104E3,8.815907E1,1.0448539E2,5.730196E2,1.171046E2,1.0704058E3,3.1471714E1,5.6687363E1,7.760578E1,2.6879608E1,1.3320558E2,4.3981406E2],"tree_param":{"num_deleted":"0","num_feature":"33","num_nodes":"15","size_leaf_vector":"0"}},{"base_weights":[-6.089015E-2,-1.3827324E-1,6.330773E-2,3.0869827E-1,-1.6316046E-1,6.1753434E-1,2.0487329E-2,1.20559605E-2,1.7398433E-1,5.0335404E-2,-1.7725753E-2,3.1031838E-2,1.1052614E-1,-1.3090761E-2,1.2454627E-2],"categories":[],"categories_nodes":[],"categories_segments":[],"categories_sizes":[],"default_left":[1,1,1,1,0,0,0,0,0,0,0,0,0,0,0],"id":42,"left_children":[1,3,5,7,9,11,13,-1,-1,-1,-1,-1,-1,-1,-1],"loss_changes":[1.8560028E1,1.3268702E1,1.750618E1,1.6533936E1,1.0652533E1,7.446972E0,1.0869263E1,0E0,0E0,0E0,0E0,0E0,0E0,0E0,0E0],"parents":[2147483647,0,0,1,1,2,2,3,3,4,4,5,5,6,6],"right_children":[2,4,6,8,10,12,14,-1,-1,-1,-1,-1,-1,-1,-1],"split_conditions":[4E0,4E0,3E0,2E0,3.1E2,5.8E1,3E0,1.20559605E-2,1.7398433E-1,5.0335404E-2,-1.7725753E-2,3.1031838E-2,1.1052614E-1,-1.3090761E-2,1.2454627E-2],"split_indices":[17,7,6,11,15,2,11,0,0,0,0,0,0,0,0],"split_type":[0,0,0,0,0,0,0,0,0,0,0,0,0,0,0],"sum_hessian":[1.9284696E3,1.1885931E3,7.398764E2,6.1876495E1,1.1267167E3,5.193409E1,6.879423E2,5.5707314E1,6.1691823E0,2.2471186E1,1.1042455E3,3.2993187E1,1.8940903E1,2.797362E2,4.0820612E2],"tree_param":{"num_deleted":"0","num_feature":"33","num_nodes":"15","size_leaf_vector":"0"}},{"base_weights":[-5.7721462E-2,2.5983391E-2,-2.1966521E-1,4.5678356E-1,2.412978E-3,-1.854848E-2,-3.3313534E-1,5.39037E-2,-4.2281833E-2,7.5880163E-3,-1.2913733E-2,-6.732548E-3,6.4999536E-2,1.8815717E-2,-3.712524E-2],"categories":[],"categories_nodes":[],"categories_segments":[],"categories_sizes":[],"default_left":[0,0,0,0,0,0,0,0,0,0,0,0,0,0,0],"id":43,"left_children":[1,3,5,7,9,11,13,-1,-1,-1,-1,-1,-1,-1,-1],"loss_changes":[2.6048029E1,1.2808859E1,1.4898567E1,4.975004E0,1.1617697E1,7.730633E0,8.396915E0,0E0,0E0,0E0,0E0,0E0,0E0,0E0,0E0],"parents":[2147483647,0,0,1,1,2,2,3,3,4,4,5,5,6,6],"right_children":[2,4,6,8,10,12,14,-1,-1,-1,-1,-1,-1,-1,-1],"split_conditions":[6.56E2,5.14E2,5.43E2,4.3E1,2.4E1,1E0,5.74E2,5.39037E-2,-4.2281833E-2,7.5880163E-3,-1.2913733E-2,-6.732548E-3,6.4999536E-2,1.8815717E-2,-3.712524E-2],"split_indices":[14,14,4,11,7,23,13,0,0,0,0,0,0,0,0],"split_type":[0,0,0,0,0,0,0,0,0,0,0,0,0,0,0],"sum_hessian":[1.918737E3,1.2650731E3,6.5366394E2,6.445198E1,1.2006211E3,2.3651129E2,4.1715268E2,5.939838E1,5.0535994E0,7.711427E2,4.2947842E2,2.2140634E2,1.5104947E1,2.7977E1,3.8917566E2],"tree_param":{"num_deleted":"0","num_feature":"33","num_nodes":"15","size_leaf_vector":"0"}},{"base_weights":[-8.2826495E-2,-1.8176809E-1,2.1654844E-2,-4.7967657E-2,-3.1499714E-1,2.738269E-1,-4.6516903E-2,-6.161801E-4,-5.17261E-2,-3.6888942E-2,-9.666357E-4,-0E0,4.1463237E-2,1.3001782E-2,-1.3410295E-2],"categories":[],"categories_nodes":[],"categories_segments":[],"categories_sizes":[],"default_left":[1,1,0,0,0,0,0,0,0,0,0,0,0,0,0],"id":44,"left_children":[1,3,5,7,9,11,13,-1,-1,-1,-1,-1,-1,-1,-1],"loss_changes":[1.9792555E1,1.7471489E1,1.603526E1,9.597078E0,8.054306E0,7.648015E0,1.1354375E1,0E0,0E0,0E0,0E0,0E0,0E0,0E0,0E0],"parents":[2147483647,0,0,1,1,2,2,3,3,4,4,5,5,6,6],"right_children":[2,4,6,8,10,12,14,-1,-1,-1,-1,-1,-1,-1,-1],"split_conditions":[3E0,5E0,1E0,7.21E2,7E0,4.62E2,7E0,-6.161801E-4,-5.17261E-2,-3.6888942E-2,-9.666357E-4,-0E0,4.1463237E-2,1.3001782E-2,-1.3410295E-2],"split_indices":[11,8,5,13,5,15,11,0,0,0,0,0,0,0,0],"split_type":[0,0,0,0,0,0,0,0,0,0,0,0,0,0,0],"sum_hessian":[1.9116975E3,9.819907E2,9.297068E2,4.9099783E2,4.9099292E2,1.975193E2,7.321875E2,4.519621E2,3.9035736E1,4.1687662E2,7.411629E1,6.745123E1,1.3006807E2,2.4226411E2,4.899234E2],"tree_param":{"num_deleted":"0","num_feature":"33","num_nodes":"15","size_leaf_vector":"0"}},{"base_weights":[-6.431384E-2,-1.2484178E-3,-2.2980611E-1,-2.6599857E-1,3.29789E-2,1.3668893E-1,-3.5584575E-1,3.0208874E-2,-4.43788E-2,1.1761131E-2,-9.648292E-3,4.2292986E-2,-1.143862E-2,-3.2002758E-3,-4.5083817E-2],"categories":[],"categories_nodes":[],"categories_segments":[],"categories_sizes":[],"default_left":[0,0,0,0,1,1,0,0,0,0,0,0,0,0,0],"id":45,"left_children":[1,3,5,7,9,11,13,-1,-1,-1,-1,-1,-1,-1,-1],"loss_changes":[1.9646265E1,1.2410852E1,2.4071508E1,1.5988315E1,1.32734785E1,9.672186E0,1.1845516E1,0E0,0E0,0E0,0E0,0E0,0E0,0E0,0E0],"parents":[2147483647,0,0,1,1,2,2,3,3,4,4,5,5,6,6],"right_children":[2,4,6,8,10,12,14,-1,-1,-1,-1,-1,-1,-1,-1],"split_conditions":[6.79E2,4.25E2,6.17E2,3.1E2,4.987E3,1.6E1,2.89E2,3.0208874E-2,-4.43788E-2,1.1761131E-2,-9.648292E-3,4.2292986E-2,-1.143862E-2,-3.2002758E-3,-4.5083817E-2],"split_indices":[14,15,13,15,1,7,4,0,0,0,0,0,0,0,0],"split_type":[0,0,0,0,0,0,0,0,0,0,0,0,0,0,0],"sum_hessian":[1.8836373E3,1.3650565E3,5.185809E2,1.5583264E2,1.2092239E3,1.3248021E2,3.8610065E2,3.6844013E1,1.18988625E2,7.317347E2,4.7748917E2,6.1771152E1,7.070906E1,8.8110085E1,2.9799057E2],"tree_param":{"num_deleted":"0","num_feature":"33","num_nodes":"15","size_leaf_vector":"0"}},{"base_weights":[-4.9960762E-2,3.701366E-4,-2.7800763E-1,4.163233E-2,-2.5538954E-1,-5.53854E-1,-1.4909776E-1,7.676095E-3,-2.4330443E-2,-3.6099266E-2,3.4452577E-3,-3.5490762E-2,-7.9745725E-2,-9.5332395E-3,-8.150841E-2],"categories":[],"categories_nodes":[],"categories_segments":[],"categories_sizes":[],"default_left":[1,0,0,0,1,1,0,0,0,0,0,0,0,0,0],"id":46,"left_children":[1,3,5,7,9,11,13,-1,-1,-1,-1,-1,-1,-1,-1],"loss_changes":[2.1639236E1,1.6273869E1,1.1965288E1,1.3313835E1,6.600458E0,4.8320274E0,8.205299E0,0E0,0E0,0E0,0E0,0E0,0E0,0E0,0E0],"parents":[2147483647,0,0,1,1,2,2,3,3,4,4,5,5,6,6],"right_children":[2,4,6,8,10,12,14,-1,-1,-1,-1,-1,-1,-1,-1],"split_conditions":[3.2E1,1E0,1E0,1E0,5.32E2,6.23E2,1E0,7.676095E-3,-2.4330443E-2,-3.6099266E-2,3.4452577E-3,-3.5490762E-2,-7.9745725E-2,-9.5332395E-3,-8.150841E-2],"split_indices":[7,26,11,20,15,14,20,0,0,0,0,0,0,0,0],"split_type":[0,0,0,0,0,0,0,0,0,0,0,0,0,0,0],"sum_hessian":[1.8818838E3,1.5420966E3,3.397873E2,1.3289265E3,2.1317001E2,1.06921135E2,2.3286617E2,1.1840337E3,1.4489282E2,1.563162E2,5.6853817E1,6.0433556E1,4.648758E1,2.1666779E2,1.6198383E1],"tree_param":{"num_deleted":"0","num_feature":"33","num_nodes":"15","size_leaf_vector":"0"}},{"base_weights":[-5.1176302E-2,4.460813E-1,-6.6218324E-2,8.672896E-1,1.6497788E-1,-2.3610184E-1,-1.713283E-2,1.24198375E-2,1.5816446E-1,-4.3805744E-2,3.4732305E-2,-1.6395068E-2,-5.7112314E-2,1.6633637E-2,-6.908785E-3],"categories":[],"categories_nodes":[],"categories_segments":[],"categories_sizes":[],"default_left":[0,0,1,0,1,0,0,0,0,0,0,0,0,0,0],"id":47,"left_children":[1,3,5,7,9,11,13,-1,-1,-1,-1,-1,-1,-1,-1],"loss_changes":[1.4084419E1,6.296117E0,1.5229645E1,1.1172703E1,3.938534E0,9.735283E0,1.3548999E1,0E0,0E0,0E0,0E0,0E0,0E0,0E0,0E0],"parents":[2147483647,0,0,1,1,2,2,3,3,4,4,5,5,6,6],"right_children":[2,4,6,8,10,12,14,-1,-1,-1,-1,-1,-1,-1,-1],"split_conditions":[3.1E2,2E0,4.58E2,1E0,1.055E3,1E0,5.67E2,1.24198375E-2,1.5816446E-1,-4.3805744E-2,3.4732305E-2,-1.6395068E-2,-5.7112314E-2,1.6633637E-2,-6.908785E-3],"split_indices":[15,5,15,5,1,26,14,0,0,0,0,0,0,0,0],"split_type":[0,0,0,0,0,0,0,0,0,0,0,0,0,0,0],"sum_hessian":[1.8831332E3,5.4255543E1,1.8288777E3,2.0738985E1,3.351656E1,4.0866217E2,1.4202155E3,1.0809009E1,9.9299755E0,7.328766E0,2.6187794E1,3.3771808E2,7.094409E1,3.1251218E2,1.1077032E3],"tree_param":{"num_deleted":"0","num_feature":"33","num_nodes":"15","size_leaf_vector":"0"}},{"base_weights":[-6.347E-2,-1.0941243E-1,1.14519075E-1,-6.9622934E-2,-3.841568E-1,3.6639196E-1,-8.097054E-3,-1.2028654E-2,6.1216694E-3,-7.0492916E-2,-2.598781E-2,4.770292E-2,-7.649415E-6,1.1589476E-2,-1.91277E-2],"categories":[],"categories_nodes":[],"categories_segments":[],"categories_sizes":[],"default_left":[1,0,1,1,1,0,0,0,0,0,0,0,0,0,0],"id":48,"left_children":[1,3,5,7,9,11,13,-1,-1,-1,-1,-1,-1,-1,-1],"loss_changes":[1.5344413E1,1.6230484E1,1.1920477E1,8.658361E0,7.2194614E0,5.1667805E0,5.9229503E0,0E0,0E0,0E0,0E0,0E0,0E0,0E0,0E0],"parents":[2147483647,0,0,1,1,2,2,3,3,4,4,5,5,6,6],"right_children":[2,4,6,8,10,12,14,-1,-1,-1,-1,-1,-1,-1,-1],"split_conditions":[5.22E2,6.83E2,2E0,4.872E3,3.54E2,1.1E1,4.3553E4,-1.2028654E-2,6.1216694E-3,-7.0492916E-2,-2.598781E-2,4.770292E-2,-7.649415E-6,1.1589476E-2,-1.91277E-2],"split_indices":[16,13,18,3,16,8,0,0,0,0,0,0,0,0,0],"split_type":[0,0,0,0,0,0,0,0,0,0,0,0,0,0,0],"sum_hessian":[1.8740061E3,1.4902825E3,3.8372363E2,1.3031699E3,1.871125E2,1.2525584E2,2.584678E2,9.400208E2,3.6314908E2,5.072103E1,1.3639148E2,9.618781E1,2.9068022E1,1.5402914E2,1.0443866E2],"tree_param":{"num_deleted":"0","num_feature":"33","num_nodes":"15","size_leaf_vector":"0"}},{"base_weights":[-3.272307E-2,-1.19726375E-1,8.0578454E-2,1.6289812E-1,-1.7954704E-1,4.50143E-2,4.7106582E-1,5.8953958E-3,8.967588E-2,-1.2900886E-2,-5.592526E-2,3.0602233E-3,9.0548865E-2,8.909608E-2,8.049412E-3],"categories":[],"categories_nodes":[],"categories_segments":[],"categories_sizes":[],"default_left":[1,0,0,1,1,0,0,0,0,0,0,0,0,0,0],"id":49,"left_children":[1,3,5,7,9,11,13,-1,-1,-1,-1,-1,-1,-1,-1],"loss_changes":[1.8302485E1,1.7788952E1,1.1119853E1,1.3865408E1,1.650862E1,9.055884E0,1.0808626E1,0E0,0E0,0E0,0E0,0E0,0E0,0E0,0E0],"parents":[2147483647,0,0,1,1,2,2,3,3,4,4,5,5,6,6],"right_children":[2,4,6,8,10,12,14,-1,-1,-1,-1,-1,-1,-1,-1],"split_conditions":[4.51E2,8E0,1E0,9E0,1.9E1,7.55E2,3.304E3,5.8953958E-3,8.967588E-2,-1.2900886E-2,-5.592526E-2,3.0602233E-3,9.0548865E-2,8.909608E-2,8.049412E-3],"split_indices":[16,2,23,17,8,16,1,0,0,0,0,0,0,0,0],"split_type":[0,0,0,0,0,0,0,0,0,0,0,0,0,0,0],"sum_hessian":[1.8543108E3,1.0493497E3,8.0496106E2,1.8271458E2,8.6663513E2,7.390248E2,6.593629E1,1.6111134E2,2.1603243E1,7.6625146E2,1.00383675E2,7.279836E2,1.1041202E1,3.1034544E1,3.490175E1],"tree_param":{"num_deleted":"0","num_feature":"33","num_nodes":"15","size_leaf_vector":"0"}},{"base_weights":[-2.4299683E-2,-2.2089155E-1,3.9668135E-2,-3.5845125E-1,-5.3061478E-2,6.472248E-1,2.2356022E-2,1.2280368E-2,-4.2101998E-2,-4.583406E-2,2.416645E-3,1.4317879E-1,3.6439985E-2,-1.2201652E-2,6.650252E-3],"categories":[],"categories_nodes":[],"categories_segments":[],"categories_sizes":[],"default_left":[1,1,0,1,1,0,1,0,0,0,0,0,0,0,0],"id":50,"left_children":[1,3,5,7,9,11,13,-1,-1,-1,-1,-1,-1,-1,-1],"loss_changes":[2.3479536E1,1.0522329E1,1.4723395E1,7.6517754E0,6.5638633E0,7.9083176E0,8.732769E0,0E0,0E0,0E0,0E0,0E0,0E0,0E0,0E0],"parents":[2147483647,0,0,1,1,2,2,3,3,4,4,5,5,6,6],"right_children":[2,4,6,8,10,12,14,-1,-1,-1,-1,-1,-1,-1,-1],"split_conditions":[3.79E2,3.1E1,3.1E2,2E0,2.86E2,4E0,4.77E2,1.2280368E-2,-4.2101998E-2,-4.583406E-2,2.416645E-3,1.4317879E-1,3.6439985E-2,-1.2201652E-2,6.650252E-3],"split_indices":[16,12,15,2,16,18,15,0,0,0,0,0,0,0,0],"split_type":[0,0,0,0,0,0,0,0,0,0,0,0,0,0,0],"sum_hessian":[1.8639401E3,4.5738177E2,1.4065582E3,2.5040721E2,2.0697458E2,3.7800873E1,1.3687573E3,2.8515547E1,2.2189166E2,3.254482E1,1.7442976E2,8.845954E0,2.8954918E1,3.195856E2,1.0491718E3],"tree_param":{"num_deleted":"0","num_feature":"33","num_nodes":"15","size_leaf_vector":"0"}},{"base_weights":[-1.9601429E-2,1.393988E-1,-6.2877655E-2,3.4203494E-1,1.2189697E-2,8.3564155E-2,-1.1695401E-1,4.079521E-2,-4.7006506E-2,-5.1818546E-3,4.2608663E-2,1.0132006E-4,7.540285E-2,3.408198E-2,-1.3209558E-2],"categories":[],"categories_nodes":[],"categories_segments":[],"categories_sizes":[],"default_left":[0,1,1,1,0,1,0,0,0,0,0,0,0,0,0],"id":51,"left_children":[1,3,5,7,9,11,13,-1,-1,-1,-1,-1,-1,-1,-1],"loss_changes":[1.2633808E1,1.0080515E1,1.1450577E1,8.272587E0,6.484772E0,2.1486422E1,7.3417206E0,0E0,0E0,0E0,0E0,0E0,0E0,0E0,0E0],"parents":[2147483647,0,0,1,1,2,2,3,3,4,4,5,5,6,6],"right_children":[2,4,6,8,10,12,14,-1,-1,-1,-1,-1,-1,-1,-1],"split_conditions":[5E0,2E0,1.6E1,1.8E1,1.5E1,5.78E2,3.1E2,4.079521E-2,-4.7006506E-2,-5.1818546E-3,4.2608663E-2,1.0132006E-4,7.540285E-2,3.408198E-2,-1.3209558E-2],"split_indices":[18,9,2,8,17,15,15,0,0,0,0,0,0,0,0],"split_type":[0,0,0,0,0,0,0,0,0,0,0,0,0,0,0],"sum_hessian":[1.8348992E3,3.9159967E2,1.4432996E3,1.5007104E2,2.4152864E2,3.8858768E2,1.0547118E3,1.3937865E2,1.0692397E1,2.0972789E2,3.1800755E1,3.4701242E2,4.1575264E1,3.2869102E1,1.0218428E3],"tree_param":{"num_deleted":"0","num_feature":"33","num_nodes":"15","size_leaf_vector":"0"}},{"base_weights":[6.238041E-3,-5.3141188E-2,1.3621752E-1,-2.4004172E-1,-5.162148E-3,1.1330557E-1,7.566759E-1,-4.695418E-2,-1.5335756E-2,2.9275576E-2,-3.0271478E-3,2.8188378E-2,2.5827882E-3,-5.176586E-2,1.281222E-1],"categories":[],"categories_nodes":[],"categories_segments":[],"categories_sizes":[],"default_left":[0,0,1,0,0,0,0,0,0,0,0,0,0,0,0],"id":52,"left_children":[1,3,5,7,9,11,13,-1,-1,-1,-1,-1,-1,-1,-1],"loss_changes":[1.4193093E1,1.1282849E1,8.027478E0,4.9815826E0,7.500058E0,8.185112E0,1.4249489E1,0E0,0E0,0E0,0E0,0E0,0E0,0E0,0E0],"parents":[2147483647,0,0,1,1,2,2,3,3,4,4,5,5,6,6],"right_children":[2,4,6,8,10,12,14,-1,-1,-1,-1,-1,-1,-1,-1],"split_conditions":[6.8E1,3.68E2,3.1234E4,4E0,2E0,7.44E2,2.314E3,-4.695418E-2,-1.5335756E-2,2.9275576E-2,-3.0271478E-3,2.8188378E-2,2.5827882E-3,-5.176586E-2,1.281222E-1],"split_indices":[2,16,3,6,18,1,1,0,0,0,0,0,0,0,0],"split_type":[0,0,0,0,0,0,0,0,0,0,0,0,0,0,0],"sum_hessian":[1.8359261E3,1.2600929E3,5.7583325E2,2.5615674E2,1.00393616E3,5.566224E2,1.9210869E1,6.870006E1,1.874567E2,7.689915E1,9.2703705E2,1.8901198E2,3.676104E2,5.550048E0,1.3660822E1],"tree_param":{"num_deleted":"0","num_feature":"33","num_nodes":"15","size_leaf_vector":"0"}},{"base_weights":[-3.252317E-2,-8.112423E-3,-3.3537984E-1,2.3666024E-2,-2.1266319E-1,-4.2127755E-1,8.438532E-2,8.033745E-4,4.7288384E-2,-5.7331193E-2,-1.4317909E-2,3.0367804E-4,-5.445516E-2,4.070935E-2,-7.805384E-2],"categories":[],"categories_nodes":[],"categories_segments":[],"categories_sizes":[],"default_left":[1,0,1,1,0,0,0,0,0,0,0,0,0,0,0],"id":53,"left_children":[1,3,5,7,9,11,13,-1,-1,-1,-1,-1,-1,-1,-1],"loss_changes":[1.3463327E1,1.1017491E1,4.968607E0,1.023085E1,5.558259E0,5.974945E0,6.9003377E0,0E0,0E0,0E0,0E0,0E0,0E0,0E0,0E0],"parents":[2147483647,0,0,1,1,2,2,3,3,4,4,5,5,6,6],"right_children":[2,4,6,8,10,12,14,-1,-1,-1,-1,-1,-1,-1,-1],"split_conditions":[2.586E3,1E0,1.3E1,1.7E1,3.37E2,2.4E1,4.164E3,8.033745E-4,4.7288384E-2,-5.7331193E-2,-1.4317909E-2,3.0367804E-4,-5.445516E-2,4.070935E-2,-7.805384E-2],"split_indices":[4,26,17,17,16,7,4,0,0,0,0,0,0,0,0],"split_type":[0,0,0,0,0,0,0,0,0,0,0,0,0,0,0],"sum_hessian":[1.825116E3,1.690237E3,1.3487892E2,1.4632983E3,2.2693861E2,1.12161606E2,2.271732E1,1.4152885E3,4.8009968E1,3.5256077E1,1.9168253E2,2.5286976E1,8.6874626E1,1.7014177E1,5.703143E0],"tree_param":{"num_deleted":"0","num_feature":"33","num_nodes":"15","size_leaf_vector":"0"}},{"base_weights":[-1.8380148E-2,1.889586E-1,-5.2314684E-2,2.4896516E-1,-4.7739902E-1,-3.205501E-2,-4.8188975E-1,3.015313E-2,-5.419829E-2,1.654888E-2,-7.0331626E-2,-1.703799E-3,-4.3754917E-2,-5.975419E-2,3.4371868E-2],"categories":[],"categories_nodes":[],"categories_segments":[],"categories_sizes":[],"default_left":[0,0,0,0,0,1,1,0,0,0,0,0,0,0,0],"id":54,"left_children":[1,3,5,7,9,11,13,-1,-1,-1,-1,-1,-1,-1,-1],"loss_changes":[1.2920515E1,1.0418653E1,1.36817E1,1.0019151E1,3.2974753E0,9.141239E0,6.996212E0,0E0,0E0,0E0,0E0,0E0,0E0,0E0,0E0],"parents":[2147483647,0,0,1,1,2,2,3,3,4,4,5,5,6,6],"right_children":[2,4,6,8,10,12,14,-1,-1,-1,-1,-1,-1,-1,-1],"split_conditions":[4.05E2,1E0,7.2E2,2.5E1,5.83E2,3.483E3,5.6E1,3.015313E-2,-5.419829E-2,1.654888E-2,-7.0331626E-2,-1.703799E-3,-4.3754917E-2,-5.975419E-2,3.4371868E-2],"split_indices":[1,27,13,10,13,4,3,0,0,0,0,0,0,0,0],"split_type":[0,0,0,0,0,0,0,0,0,0,0,0,0,0,0],"sum_hessian":[1.8358954E3,2.5715747E2,1.5787379E3,2.3662544E2,2.0532045E1,1.5088832E3,6.985473E1,2.2257817E2,1.4047264E1,5.2934446E0,1.5238601E1,1.4562416E3,5.2641644E1,6.1620262E1,8.234466E0],"tree_param":{"num_deleted":"0","num_feature":"33","num_nodes":"15","size_leaf_vector":"0"}},{"base_weights":[-3.6096223E-2,-9.975223E-3,-2.962168E-1,-2.465489E-2,4.796231E-1,-1.6596961E-1,-8.398871E-1,-1.0925325E-2,5.595247E-3,3.027068E-2,1.6159947E-1,2.3401944E-2,-3.508025E-2,-3.7049465E-2,-9.247021E-2],"categories":[],"categories_nodes":[],"categories_segments":[],"categories_sizes":[],"default_left":[0,1,0,1,0,0,1,0,0,0,0,0,0,0,0],"id":55,"left_children":[1,3,5,7,9,11,13,-1,-1,-1,-1,-1,-1,-1,-1],"loss_changes":[1.2329226E1,1.1859944E1,1.1490268E1,1.097559E1,8.973754E0,1.0076942E1,7.8676987E-1,0E0,0E0,0E0,0E0,0E0,0E0,0E0,0E0],"parents":[2147483647,0,0,1,1,2,2,3,3,4,4,5,5,6,6],"right_children":[2,4,6,8,10,12,14,-1,-1,-1,-1,-1,-1,-1,-1],"split_conditions":[1E0,1.4E1,6E0,2.4E1,2.199E4,5.9E2,5.29E2,-1.0925325E-2,5.595247E-3,3.027068E-2,1.6159947E-1,2.3401944E-2,-3.508025E-2,-3.7049465E-2,-9.247021E-2],"split_indices":[20,5,5,12,1,14,14,0,0,0,0,0,0,0,0],"split_type":[0,0,0,0,0,0,0,0,0,0,0,0,0,0,0],"sum_hessian":[1.8185012E3,1.6538467E3,1.6465453E2,1.6068231E3,4.7023617E1,1.3403336E2,3.0621185E1,7.844348E2,8.2238824E2,4.1860874E1,5.162742E0,4.2106125E1,9.192722E1,5.688203E0,2.4932981E1],"tree_param":{"num_deleted":"0","num_feature":"33","num_nodes":"15","size_leaf_vector":"0"}},{"base_weights":[-8.974951E-3,2.5521902E-2,-1.7322244E-1,9.698464E-2,1.9410908E-2,-2.8307369E-2,-4.039864E-1,4.7404165E-3,-1.740578E-2,6.2635385E-2,-9.246351E-3,-3.1512962E-3,-4.9302425E-2],"categories":[],"categories_nodes":[],"categories_segments":[],"categories_sizes":[],"default_left":[1,0,1,0,0,0,0,0,0,0,0,0,0],"id":56,"left_children":[1,3,5,-1,7,9,11,-1,-1,-1,-1,-1,-1],"loss_changes":[1.033038E1,8.563335E0,1.0529687E1,0E0,8.096435E0,8.226481E0,3.969696E0,0E0,0E0,0E0,0E0,0E0,0E0],"parents":[2147483647,0,0,1,1,2,2,4,4,5,5,6,6],"right_children":[2,4,6,-1,8,10,12,-1,-1,-1,-1,-1,-1],"split_conditions":[3.2E1,4.79E2,6.14E2,9.698464E-2,1E0,5.27E2,1.4E1,4.7404165E-3,-1.740578E-2,6.2635385E-2,-9.246351E-3,-3.1512962E-3,-4.9302425E-2],"split_indices":[7,14,14,0,26,13,8,0,0,0,0,0,0],"split_type":[0,0,0,0,0,0,0,0,0,0,0,0,0],"sum_hessian":[1.8188289E3,1.5033223E3,3.155066E2,8.546672E0,1.4947756E3,1.9475835E2,1.2074825E2,1.306944E3,1.8783165E2,1.6461407E1,1.7829694E2,2.3773449E1,9.697481E1],"tree_param":{"num_deleted":"0","num_feature":"33","num_nodes":"13","size_leaf_vector":"0"}},{"base_weights":[-3.0347766E-2,-9.257171E-2,1.490762E-1,-1.3073385E-1,1.33252E-1,1.9696042E-1,-3.162653E-1,-1.3984734E-2,6.44895E-2,2.49994E-2,-2.125576E-2,1.7405009E-2,1.359028E-1,6.075412E-3,-6.1862808E-2],"categories":[],"categories_nodes":[],"categories_segments":[],"categories_sizes":[],"default_left":[1,1,0,1,0,0,0,0,0,0,0,0,0,0,0],"id":57,"left_children":[1,3,5,7,9,11,13,-1,-1,-1,-1,-1,-1,-1,-1],"loss_changes":[2.0302298E1,1.1657464E1,1.0479369E1,8.213427E0,7.944337E0,1.0929842E1,5.0929074E0,0E0,0E0,0E0,0E0,0E0,0E0,0E0,0E0],"parents":[2147483647,0,0,1,1,2,2,3,3,4,4,5,5,6,6],"right_children":[2,4,6,8,10,12,14,-1,-1,-1,-1,-1,-1,-1,-1],"split_conditions":[5.06E2,1.0996E4,1E0,6.62E2,7.4249E4,4.3E1,6.08E2,-1.3984734E-2,6.44895E-2,2.49994E-2,-2.125576E-2,1.7405009E-2,1.359028E-1,6.075412E-3,-6.1862808E-2],"split_indices":[16,3,20,15,0,8,13,0,0,0,0,0,0,0,0],"split_type":[0,0,0,0,0,0,0,0,0,0,0,0,0,0,0],"sum_hessian":[1.8167445E3,1.349709E3,4.670355E2,1.1553323E3,1.9437668E2,4.2417862E2,4.2856873E1,1.1428527E3,1.2479668E1,1.4574187E2,4.863481E1,4.171895E2,6.989125E0,1.9282125E1,2.3574749E1],"tree_param":{"num_deleted":"0","num_feature":"33","num_nodes":"15","size_leaf_vector":"0"}},{"base_weights":[-2.4859937E-2,-1.0852172E-3,-2.816477E-1,-3.895885E-2,1.3634078E-1,2.2668738E-2,-5.0933236E-1,-4.583555E-3,7.7886365E-2,8.0740176E-2,1.0062662E-2,-8.915356E-3,9.038114E-2,-1.4657885E-2,-6.7527205E-2],"categories":[],"categories_nodes":[],"categories_segments":[],"categories_sizes":[],"default_left":[0,1,1,1,0,1,0,0,0,0,0,0,0,0,0],"id":58,"left_children":[1,3,5,7,9,11,13,-1,-1,-1,-1,-1,-1,-1,-1],"loss_changes":[1.0941159E1,8.562325E0,1.0585221E1,7.2266417E0,8.342138E0,6.643446E0,5.0631523E0,0E0,0E0,0E0,0E0,0E0,0E0,0E0,0E0],"parents":[2147483647,0,0,1,1,2,2,3,3,4,4,5,5,6,6],"right_children":[2,4,6,8,10,12,14,-1,-1,-1,-1,-1,-1,-1,-1],"split_conditions":[1E0,7E0,2.359E3,6.3E1,3.1E2,1.4664E4,5.94E2,-4.583555E-3,7.7886365E-2,8.0740176E-2,1.0062662E-2,-8.915356E-3,9.038114E-2,-1.4657885E-2,-6.7527205E-2],"split_indices":[20,17,1,7,15,3,14,0,0,0,0,0,0,0,0],"split_type":[0,0,0,0,0,0,0,0,0,0,0,0,0,0,0],"sum_hessian":[1.7958279E3,1.6449259E3,1.5090196E2,1.2906704E3,3.5425546E2,6.478008E1,8.612188E1,1.2809656E3,9.704824E0,1.6667608E1,3.3758786E2,5.8181793E1,6.598288E0,2.7811132E1,5.8310745E1],"tree_param":{"num_deleted":"0","num_feature":"33","num_nodes":"15","size_leaf_vector":"0"}},{"base_weights":[-1.6760746E-2,1.7446066E-1,-4.0323604E-2,2.6341504E-1,-3.199426E-1,-7.1750365E-2,1.8888623E-1,-2.0764327E-2,3.38649E-2,-7.567249E-2,3.5747369E-3,-1.3686353E-2,1.6963723E-3,3.4742493E-2,-1.2680337E-2],"categories":[],"categories_nodes":[],"categories_segments":[],"categories_sizes":[],"default_left":[0,1,0,0,1,0,0,0,0,0,0,0,0,0,0],"id":59,"left_children":[1,3,5,7,9,11,13,-1,-1,-1,-1,-1,-1,-1,-1],"loss_changes":[8.2158E0,8.870742E0,1.1713834E1,6.113475E0,4.8786926E0,8.280279E0,9.872698E0,0E0,0E0,0E0,0E0,0E0,0E0,0E0,0E0],"parents":[2147483647,0,0,1,1,2,2,3,3,4,4,5,5,6,6],"right_children":[2,4,6,8,10,12,14,-1,-1,-1,-1,-1,-1,-1,-1],"split_conditions":[5.49E2,2.6E1,5.83E2,5.225E3,7E0,3E0,6E0,-2.0764327E-2,3.38649E-2,-7.567249E-2,3.5747369E-3,-1.3686353E-2,1.6963723E-3,3.4742493E-2,-1.2680337E-2],"split_indices":[13,10,16,0,18,5,11,0,0,0,0,0,0,0,0],"split_type":[0,0,0,0,0,0,0,0,0,0,0,0,0,0,0],"sum_hessian":[1.8238303E3,1.9891473E2,1.6249155E3,1.6915024E2,2.9764498E1,1.4299761E3,1.9493953E2,2.2869513E1,1.4628073E2,1.2979506E1,1.6784992E1,8.2502203E2,6.04954E2,1.2991347E2,6.5026054E1],"tree_param":{"num_deleted":"0","num_feature":"33","num_nodes":"15","size_leaf_vector":"0"}},{"base_weights":[-5.1508815E-4,1.1887196E-2,-4.864865E-1,8.185646E-1,5.047494E-3,-7.1785283E-1,-7.9814956E-2,9.025097E-3,1.4405857E-1,-4.3735924E-4,4.2334527E-2,-1.9353628E-2,-8.177133E-2,-5.3603273E-2,4.6363004E-2],"categories":[],"categories_nodes":[],"categories_segments":[],"categories_sizes":[],"default_left":[1,0,1,1,1,0,0,0,0,0,0,0,0,0,0],"id":60,"left_children":[1,3,5,7,9,11,13,-1,-1,-1,-1,-1,-1,-1,-1],"loss_changes":[1.0966409E1,9.659403E0,4.1237E0,6.3862915E0,6.9506664E0,1.2370815E0,4.644786E0,0E0,0E0,0E0,0E0,0E0,0E0,0E0,0E0],"parents":[2147483647,0,0,1,1,2,2,3,3,4,4,5,5,6,6],"right_children":[2,4,6,8,10,12,14,-1,-1,-1,-1,-1,-1,-1,-1],"split_conditions":[7.14E2,4.79E2,5.07E2,5.17E2,2.2E1,9.966E3,8.1E1,9.025097E-3,1.4405857E-1,-4.3735924E-4,4.2334527E-2,-1.9353628E-2,-8.177133E-2,-5.3603273E-2,4.6363004E-2],"split_indices":[14,14,15,15,17,0,2,0,0,0,0,0,0,0,0],"split_type":[0,0,0,0,0,0,0,0,0,0,0,0,0,0,0],"sum_hessian":[1.8096659E3,1.7653821E3,4.4283855E1,1.3721855E1,1.7516603E3,2.7581125E1,1.670273E1,6.922399E0,6.799456E0,1.7138115E3,3.7848736E1,5.0428977E0,2.2538227E1,9.187526E0,7.5152044E0],"tree_param":{"num_deleted":"0","num_feature":"33","num_nodes":"15","size_leaf_vector":"0"}},{"base_weights":[-1.0063761E-2,1.316415E-1,-5.3474404E-2,2.548884E-1,-2.3540149E-2,-8.652143E-2,3.0086526E-1,5.1984163E-3,4.1272048E-2,-8.729211E-3,7.109541E-2,-1.4795986E-2,9.844442E-3,2.180302E-2,1.2287825E-1],"categories":[],"categories_nodes":[],"categories_segments":[],"categories_sizes":[],"default_left":[1,1,0,0,1,0,1,0,0,0,0,0,0,0,0],"id":61,"left_children":[1,3,5,7,9,11,13,-1,-1,-1,-1,-1,-1,-1,-1],"loss_changes":[1.1100932E1,8.118576E0,1.61964E1,7.4957294E0,8.792648E0,1.4404355E1,8.651538E0,0E0,0E0,0E0,0E0,0E0,0E0,0E0,0E0],"parents":[2147483647,0,0,1,1,2,2,3,3,4,4,5,5,6,6],"right_children":[2,4,6,8,10,12,14,-1,-1,-1,-1,-1,-1,-1,-1],"split_conditions":[1.2E1,5.07E2,1E0,3.59E3,1E1,8E1,4.8E1,5.1984163E-3,4.1272048E-2,-8.729211E-3,7.109541E-2,-1.4795986E-2,9.844442E-3,2.180302E-2,1.2287825E-1],"split_indices":[2,15,23,1,2,2,18,0,0,0,0,0,0,0,0],"split_type":[0,0,0,0,0,0,0,0,0,0,0,0,0,0,0],"sum_hessian":[1.8037109E3,4.2196277E2,1.3817482E3,2.3518126E2,1.8678152E2,1.264824E3,1.1692412E2,1.03757126E2,1.3142413E2,1.7280026E2,1.3981257E1,9.500089E2,3.1481512E2,1.08574425E2,8.349691E0],"tree_param":{"num_deleted":"0","num_feature":"33","num_nodes":"15","size_leaf_vector":"0"}},{"base_weights":[-2.2961063E-2,1.0963817E-1,-7.123834E-2,1.8020421E-1,-2.4194534E-1,2.6532186E-2,-1.5270266E-1,8.376214E-3,5.4457158E-2,-3.487553E-2,5.352999E-2,8.753327E-4,6.448963E-2,-3.1455208E-2,-9.646187E-3],"categories":[],"categories_nodes":[],"categories_segments":[],"categories_sizes":[],"default_left":[0,1,0,0,0,1,0,0,0,0,0,0,0,0,0],"id":62,"left_children":[1,3,5,7,9,11,13,-1,-1,-1,-1,-1,-1,-1,-1],"loss_changes":[1.1499367E1,1.1924662E1,1.0511045E1,1.3942495E1,6.8327985E0,6.5159883E0,6.4772644E0,0E0,0E0,0E0,0E0,0E0,0E0,0E0,0E0],"parents":[2147483647,0,0,1,1,2,2,3,3,4,4,5,5,6,6],"right_children":[2,4,6,8,10,12,14,-1,-1,-1,-1,-1,-1,-1,-1],"split_conditions":[5.78E2,3.7E1,1.6E1,1.295E4,5.85E2,6.62E2,3.82E2,8.376214E-3,5.4457158E-2,-3.487553E-2,5.352999E-2,8.753327E-4,6.448963E-2,-3.1455208E-2,-9.646187E-3],"split_indices":[13,7,7,1,15,15,16,0,0,0,0,0,0,0,0],"split_type":[0,0,0,0,0,0,0,0,0,0,0,0,0,0,0],"sum_hessian":[1.7947263E3,4.7813364E2,1.3165928E3,3.988522E2,7.928142E1,5.981553E2,7.184375E2,3.1656656E2,8.2285645E1,7.030058E1,8.980835E0,5.825811E2,1.5574173E1,1.8362672E2,5.348107E2],"tree_param":{"num_deleted":"0","num_feature":"33","num_nodes":"15","size_leaf_vector":"0"}},{"base_weights":[-1.9638475E-2,-4.683642E-2,2.4285278E-1,1.9702732E-3,-1.565248E-1,6.492176E-1,1.2276219E-1,2.5383614E-3,-2.6084432E-2,-8.720967E-3,-5.3844202E-2,1.8224878E-2,1.4126031E-1,-1.4185414E-2,2.9353753E-2],"categories":[],"categories_nodes":[],"categories_segments":[],"categories_sizes":[],"default_left":[1,0,0,0,0,0,0,0,0,0,0,0,0,0,0],"id":63,"left_children":[1,3,5,7,9,11,13,-1,-1,-1,-1,-1,-1,-1,-1],"loss_changes":[1.2821221E1,8.739352E0,8.067676E0,6.9245243E0,1.3191116E1,1.3136864E1,5.9998627E0,0E0,0E0,0E0,0E0,0E0,0E0,0E0,0E0],"parents":[2147483647,0,0,1,1,2,2,3,3,4,4,5,5,6,6],"right_children":[2,4,6,8,10,12,14,-1,-1,-1,-1,-1,-1,-1,-1],"split_conditions":[9.4E1,6.55E2,9.7E1,1E0,1E0,7E0,4E0,2.5383614E-3,-2.6084432E-2,-8.720967E-3,-5.3844202E-2,1.8224878E-2,1.4126031E-1,-1.4185414E-2,2.9353753E-2],"split_indices":[2,14,2,20,26,11,17,0,0,0,0,0,0,0,0],"split_type":[0,0,0,0,0,0,0,0,0,0,0,0,0,0,0],"sum_hessian":[1.7960372E3,1.6285029E3,1.6753427E2,1.1270734E3,5.0142963E2,3.7021484E1,1.3051279E2,1.036058E3,9.101529E1,4.2566483E2,7.576481E1,2.382021E1,1.3201275E1,5.102827E1,7.9484505E1],"tree_param":{"num_deleted":"0","num_feature":"33","num_nodes":"15","size_leaf_vector":"0"}},{"base_weights":[-2.1632405E-3,8.871282E-3,-4.5452374E-1,7.830753E-1,2.3843287E-3,-5.927657E-1,2.3854045E-2,2.9345838E-2,1.1143664E-1,-7.0758176E-4,3.9111394E-2,-7.627662E-2,-1.2235976E-2],"categories":[],"categories_nodes":[],"categories_segments":[],"categories_sizes":[],"default_left":[1,0,1,0,0,0,0,0,0,0,0,0,0],"id":64,"left_children":[1,3,5,7,9,11,-1,-1,-1,-1,-1,-1,-1],"loss_changes":[8.985046E0,8.700633E0,4.283862E0,1.8674831E0,6.4216766E0,2.7086506E0,0E0,0E0,0E0,0E0,0E0,0E0,0E0],"parents":[2147483647,0,0,1,1,2,2,3,3,4,4,5,5],"right_children":[2,4,6,8,10,12,-1,-1,-1,-1,-1,-1,-1],"split_conditions":[7.14E2,4.79E2,5.55E2,3.1783E4,1E0,2.09E2,2.3854045E-2,2.9345838E-2,1.1143664E-1,-7.0758176E-4,3.9111394E-2,-7.627662E-2,-1.2235976E-2],"split_indices":[14,14,15,0,30,3,0,0,0,0,0,0,0],"split_type":[0,0,0,0,0,0,0,0,0,0,0,0,0],"sum_hessian":[1.7893038E3,1.7474376E3,4.1866276E1,1.3397053E1,1.7340405E3,3.5145073E1,6.7212024E0,6.2894683E0,7.107585E0,1.6935508E3,4.04898E1,2.5202885E1,9.942188E0],"tree_param":{"num_deleted":"0","num_feature":"33","num_nodes":"13","size_leaf_vector":"0"}},{"base_weights":[-2.7685736E-3,4.003047E-2,-1.9967489E-1,9.6305385E-3,2.7246138E-1,-1.5738082E-1,-7.303719E-1,-1.7532849E-4,6.427854E-2,4.251452E-2,-4.0216437E-3,-2.0208772E-2,3.2953814E-2,-3.0862525E-2,-8.292978E-2],"categories":[],"categories_nodes":[],"categories_segments":[],"categories_sizes":[],"default_left":[0,0,0,0,0,1,0,0,0,0,0,0,0,0,0],"id":65,"left_children":[1,3,5,7,9,11,13,-1,-1,-1,-1,-1,-1,-1,-1],"loss_changes":[1.5158478E1,1.039584E1,7.0064898E0,9.481228E0,8.18395E0,6.562069E0,6.0079575E-1,0E0,0E0,0E0,0E0,0E0,0E0,0E0,0E0],"parents":[2147483647,0,0,1,1,2,2,3,3,4,4,5,5,6,6],"right_children":[2,4,6,8,10,12,14,-1,-1,-1,-1,-1,-1,-1,-1],"split_conditions":[3.2E1,1.2817E4,1E0,3.1E1,5.28E2,3.6E1,5.73E2,-1.7532849E-4,6.427854E-2,4.251452E-2,-4.0216437E-3,-2.0208772E-2,3.2953814E-2,-3.0862525E-2,-8.292978E-2],"split_indices":[7,3,20,7,15,18,14,0,0,0,0,0,0,0,0],"split_type":[0,0,0,0,0,0,0,0,0,0,0,0,0,0,0],"sum_hessian":[1.7948705E3,1.4746362E3,3.2023422E2,1.3053761E3,1.692601E2,2.9797223E2,2.2262009E1,1.2831451E3,2.2231047E1,1.13699554E2,5.556054E1,2.736382E2,2.4334003E1,5.204503E0,1.7057505E1],"tree_param":{"num_deleted":"0","num_feature":"33","num_nodes":"15","size_leaf_vector":"0"}},{"base_weights":[-3.972416E-3,3.819957E-2,-1.2786587E-1,3.9938125E-3,3.4558627E-1,-1.9124964E-1,4.5774233E-1,1.5738594E-3,-3.96414E-2,2.0370629E-2,1.0337321E-1,2.7812684E-2,-2.26849E-2,1.3280386E-2,1.03304386E-1],"categories":[],"categories_nodes":[],"categories_segments":[],"categories_sizes":[],"default_left":[0,0,1,1,0,0,1,0,0,0,0,0,0,0,0],"id":66,"left_children":[1,3,5,7,9,11,13,-1,-1,-1,-1,-1,-1,-1,-1],"loss_changes":[9.375848E0,1.40210285E1,1.6981647E1,5.632058E0,1.2707059E1,6.945632E0,8.095315E0,0E0,0E0,0E0,0E0,0E0,0E0,0E0,0E0],"parents":[2147483647,0,0,1,1,2,2,3,3,4,4,5,5,6,6],"right_children":[2,4,6,8,10,12,14,-1,-1,-1,-1,-1,-1,-1,-1],"split_conditions":[6.79E2,6.62E2,5.75E2,3.483E3,1E0,2.9E1,6.85E2,1.5738594E-3,-3.96414E-2,2.0370629E-2,1.0337321E-1,2.7812684E-2,-2.26849E-2,1.3280386E-2,1.03304386E-1],"split_indices":[14,13,16,4,22,4,13,0,0,0,0,0,0,0,0],"split_type":[0,0,0,0,0,0,0,0,0,0,0,0,0,0,0],"sum_hessian":[1.790827E3,1.335964E3,4.548631E2,1.20339E3,1.3257399E2,4.1120065E2,4.3662453E1,1.1702739E3,3.3116093E1,1.111075E2,2.14665E1,2.8310171E1,3.8289047E2,2.88003E1,1.4862154E1],"tree_param":{"num_deleted":"0","num_feature":"33","num_nodes":"15","size_leaf_vector":"0"}},{"base_weights":[1.39574045E-2,-1.5670426E-1,4.5983825E-2,-9.320876E-2,-6.149811E-1,3.379963E-1,2.056983E-2,-4.230931E-2,1.1624253E-3,-4.138532E-2,-8.216288E-2,2.1592608E-2,1.02537036E-1,-4.266502E-4,2.861737E-2],"categories":[],"categories_nodes":[],"categories_segments":[],"categories_sizes":[],"default_left":[1,1,0,1,0,0,0,0,0,0,0,0,0,0,0],"id":67,"left_children":[1,3,5,7,9,11,13,-1,-1,-1,-1,-1,-1,-1,-1],"loss_changes":[9.823721E0,8.131211E0,1.1201889E1,8.7149315E0,9.566498E-1,9.801621E0,9.233552E0,0E0,0E0,0E0,0E0,0E0,0E0,0E0,0E0],"parents":[2147483647,0,0,1,1,2,2,3,3,4,4,5,5,6,6],"right_children":[2,4,6,8,10,12,14,-1,-1,-1,-1,-1,-1,-1,-1],"split_conditions":[3.54E2,6.91E2,2E0,4.11E2,5.378E3,6.62E2,1E0,-4.230931E-2,1.1624253E-3,-4.138532E-2,-8.216288E-2,2.1592608E-2,1.02537036E-1,-4.266502E-4,2.861737E-2],"split_indices":[16,13,18,15,1,13,29,0,0,0,0,0,0,0,0],"split_type":[0,0,0,0,0,0,0,0,0,0,0,0,0,0,0],"sum_hessian":[1.7970531E3,2.82841E2,1.5142122E3,2.4967012E2,3.3170876E1,1.19932014E2,1.3942802E3,5.97064E1,1.8996371E2,1.8576847E1,1.4594028E1,1.0308486E2,1.684715E1,1.2756069E3,1.1867318E2],"tree_param":{"num_deleted":"0","num_feature":"33","num_nodes":"15","size_leaf_vector":"0"}},{"base_weights":[-1.240983E-2,1.0910459E-2,-2.4895902E-1,4.1079067E-2,-1.05868556E-1,-3.0751815E-1,2.4071674E-1,1.0554911E-2,-4.0823654E-3,-6.619718E-2,-5.535781E-3,-1.1374453E-2,-4.504527E-2,-2.085433E-2,9.323212E-2],"categories":[],"categories_nodes":[],"categories_segments":[],"categories_sizes":[],"default_left":[0,1,0,0,0,0,0,0,0,0,0,0,0,0,0],"id":68,"left_children":[1,3,5,7,9,11,13,-1,-1,-1,-1,-1,-1,-1,-1],"loss_changes":[9.907572E0,5.7441483E0,4.7021866E0,6.8624163E0,9.286219E0,3.8966074E0,5.733281E0,0E0,0E0,0E0,0E0,0E0,0E0,0E0,0E0],"parents":[2147483647,0,0,1,1,2,2,3,3,4,4,5,5,6,6],"right_children":[2,4,6,8,10,12,14,-1,-1,-1,-1,-1,-1,-1,-1],"split_conditions":[1E0,1.4E1,2.1E1,4.987E3,1E0,4.06E2,7.472E3,1.0554911E-2,-4.0823654E-3,-6.619718E-2,-5.535781E-3,-1.1374453E-2,-4.504527E-2,-2.085433E-2,9.323212E-2],"split_indices":[21,10,11,1,11,3,1,0,0,0,0,0,0,0,0],"split_type":[0,0,0,0,0,0,0,0,0,0,0,0,0,0,0],"sum_hessian":[1.7902151E3,1.6300474E3,1.6016768E2,1.2965914E3,3.3345596E2,1.435742E2,1.6593477E1,7.26028E2,5.705634E2,2.6592936E1,3.06863E2,6.2007385E1,8.156682E1,1.039491E1,6.198567E0],"tree_param":{"num_deleted":"0","num_feature":"33","num_nodes":"15","size_leaf_vector":"0"}},{"base_weights":[-1.2012462E-3,7.746613E-2,-7.0322715E-2,2.844422E-1,3.137136E-2,-1.0350799E-1,2.6095298E-1,4.337184E-2,-3.2184403E-2,5.455614E-3,-6.8633884E-2,-4.063084E-3,-2.9487843E-2,4.5330238E-2,-1.9143311E-2],"categories":[],"categories_nodes":[],"categories_segments":[],"categories_sizes":[],"default_left":[0,0,1,0,0,1,0,0,0,0,0,0,0,0,0],"id":69,"left_children":[1,3,5,7,9,11,13,-1,-1,-1,-1,-1,-1,-1,-1],"loss_changes":[9.81191E0,8.005422E0,1.0578644E1,1.4005952E1,1.1476702E1,1.04796715E1,7.729797E0,0E0,0E0,0E0,0E0,0E0,0E0,0E0,0E0],"parents":[2147483647,0,0,1,1,2,2,3,3,4,4,5,5,6,6],"right_children":[2,4,6,8,10,12,14,-1,-1,-1,-1,-1,-1,-1,-1],"split_conditions":[3.362E3,4E0,5.83E2,1.5E1,3.1E1,6.45E2,1.5684E4,4.337184E-2,-3.2184403E-2,5.455614E-3,-6.8633884E-2,-4.063084E-3,-2.9487843E-2,4.5330238E-2,-1.9143311E-2],"split_indices":[1,18,16,10,6,13,1,0,0,0,0,0,0,0,0],"split_type":[0,0,0,0,0,0,0,0,0,0,0,0,0,0,0],"sum_hessian":[1.8025839E3,8.42343E2,9.602409E2,1.520889E2,6.9025415E2,8.737074E2,8.6533516E1,1.2240149E2,2.9687405E1,6.696841E2,2.0570036E1,6.5893945E2,2.1476793E2,6.087092E1,2.5662592E1],"tree_param":{"num_deleted":"0","num_feature":"33","num_nodes":"15","size_leaf_vector":"0"}},{"base_weights":[-1.4698251E-2,-6.439856E-2,9.1651715E-2,-5.0515093E-2,-6.8836457E-1,3.6569533E-1,1.6406914E-2,-2.5720056E-3,-3.2802742E-2,-8.852524E-2,-0E0,3.0700285E-2,1.2702963E-1,-1.7602006E-3,3.9368432E-2],"categories":[],"categories_nodes":[],"categories_segments":[],"categories_sizes":[],"default_left":[0,1,0,0,0,1,0,0,0,0,0,0,0,0,0],"id":70,"left_children":[1,3,5,7,9,11,13,-1,-1,-1,-1,-1,-1,-1,-1],"loss_changes":[9.398254E0,1.0395845E1,1.1624413E1,8.126881E0,3.5699253E0,5.9068413E0,5.758204E0,0E0,0E0,0E0,0E0,0E0,0E0,0E0,0E0],"parents":[2147483647,0,0,1,1,2,2,3,3,4,4,5,5,6,6],"right_children":[2,4,6,8,10,12,14,-1,-1,-1,-1,-1,-1,-1,-1],"split_conditions":[6.8E1,7E2,5.95E2,1E0,2.9775E4,1.8692E4,1.645E4,-2.5720056E-3,-3.2802742E-2,-8.852524E-2,-0E0,3.0700285E-2,1.2702963E-1,-1.7602006E-3,3.9368432E-2],"split_indices":[2,14,13,20,1,1,3,0,0,0,0,0,0,0,0],"split_type":[0,0,0,0,0,0,0,0,0,0,0,0,0,0,0],"sum_hessian":[1.7764767E3,1.2115979E3,5.648788E2,1.1864404E3,2.51575E1,1.2057011E2,4.4430872E2,1.0904633E3,9.5977165E1,1.9371468E1,5.7860327E0,1.1458547E2,5.9846315E0,4.0820056E2,3.610814E1],"tree_param":{"num_deleted":"0","num_feature":"33","num_nodes":"15","size_leaf_vector":"0"}},{"base_weights":[3.266277E-2,4.356901E-2,-5.3017765E-1,2.0990725E-1,9.765526E-3,-6.459309E-1,3.997344E-3,2.4776947E-2,-8.7853044E-2,-3.8790953E-4,4.0739983E-2,-3.6457155E-2,-8.853297E-2],"categories":[],"categories_nodes":[],"categories_segments":[],"categories_sizes":[],"default_left":[1,0,0,0,1,0,0,0,0,0,0,0,0],"id":71,"left_children":[1,3,5,7,9,11,-1,-1,-1,-1,-1,-1,-1],"loss_changes":[1.0922987E1,9.820346E0,2.317482E0,1.23181715E1,7.945003E0,1.458766E0,0E0,0E0,0E0,0E0,0E0,0E0,0E0],"parents":[2147483647,0,0,1,1,2,2,3,3,4,4,5,5],"right_children":[2,4,6,8,10,12,-1,-1,-1,-1,-1,-1,-1],"split_conditions":[7.17E2,4.99E2,2.2824E4,3.5E1,9.6E1,4.706E3,3.997344E-3,2.4776947E-2,-8.7853044E-2,-3.8790953E-4,4.0739983E-2,-3.6457155E-2,-8.853297E-2],"split_indices":[14,1,1,10,2,1,0,0,0,0,0,0,0],"split_type":[0,0,0,0,0,0,0,0,0,0,0,0,0],"sum_hessian":[1.7825958E3,1.7497902E3,3.280566E1,2.9415604E2,1.455634E3,2.7304688E1,5.5009727E0,2.8510275E2,9.053299E0,1.4080562E3,4.757798E1,1.3904112E1,1.3400575E1],"tree_param":{"num_deleted":"0","num_feature":"33","num_nodes":"13","size_leaf_vector":"0"}},{"base_weights":[-8.991276E-3,-4.460366E-2,2.040101E-1,-2.8223835E-2,-3.8093764E-1,2.97203E-1,-1.24892E-1,-4.7897473E-3,2.8514339E-2,2.4110543E-2,-4.35334E-2,8.5689954E-2,2.1571735E-2,2.11452E-2,-4.3304566E-2],"categories":[],"categories_nodes":[],"categories_segments":[],"categories_sizes":[],"default_left":[0,1,0,0,0,0,1,0,0,0,0,0,0,0,0],"id":72,"left_children":[1,3,5,7,9,11,13,-1,-1,-1,-1,-1,-1,-1,-1],"loss_changes":[1.3506725E1,8.363669E0,7.8694134E0,8.978375E0,2.5124016E0,8.793129E0,5.996691E0,0E0,0E0,0E0,0E0,0E0,0E0,0E0,0E0],"parents":[2147483647,0,0,1,1,2,2,3,3,4,4,5,5,6,6],"right_children":[2,4,6,8,10,12,14,-1,-1,-1,-1,-1,-1,-1,-1],"split_conditions":[1E0,3.026E3,1.3E1,1.1E1,5E0,7E0,3.9E1,-4.7897473E-3,2.8514339E-2,2.4110543E-2,-4.35334E-2,8.5689954E-2,2.1571735E-2,2.11452E-2,-4.3304566E-2],"split_indices":[22,4,10,5,6,2,2,0,0,0,0,0,0,0,0],"split_type":[0,0,0,0,0,0,0,0,0,0,0,0,0,0,0],"sum_hessian":[1.7805028E3,1.5265364E3,2.5396645E2,1.4569619E3,6.957437E1,1.9820607E2,5.5760365E1,1.3719926E3,8.496938E1,5.171025E0,6.440334E1,2.3824018E1,1.7438206E2,2.6655584E1,2.910478E1],"tree_param":{"num_deleted":"0","num_feature":"33","num_nodes":"15","size_leaf_vector":"0"}},{"base_weights":[-3.4545016E-2,4.1530956E-2,-1.0722577E-1,-4.9259585E-1,6.427527E-2,1.721524E-2,-2.0809998E-1,-6.0018916E-2,-0E0,-1.2542429E-2,1.2622322E-2,-1.8976053E-2,1.6334368E-2,-3.6063917E-2,-1.0571712E-2],"categories":[],"categories_nodes":[],"categories_segments":[],"categories_sizes":[],"default_left":[1,1,1,0,0,0,0,0,0,0,0,0,0,0,0],"id":73,"left_children":[1,3,5,7,9,11,13,-1,-1,-1,-1,-1,-1,-1,-1],"loss_changes":[9.902349E0,1.0607541E1,1.1518852E1,1.8513384E0,9.880715E0,1.2443782E1,7.8227177E0,0E0,0E0,0E0,0E0,0E0,0E0,0E0,0E0],"parents":[2147483647,0,0,1,1,2,2,3,3,4,4,5,5,6,6],"right_children":[2,4,6,8,10,12,14,-1,-1,-1,-1,-1,-1,-1,-1],"split_conditions":[7.37E2,2.86E2,5E0,1.2E1,4.139E3,9E0,1E0,-6.0018916E-2,-0E0,-1.2542429E-2,1.2622322E-2,-1.8976053E-2,1.6334368E-2,-3.6063917E-2,-1.0571712E-2],"split_indices":[4,16,18,8,0,6,11,0,0,0,0,0,0,0,0],"split_type":[0,0,0,0,0,0,0,0,0,0,0,0,0,0,0],"sum_hessian":[1.7879062E3,8.730868E2,9.148195E2,3.463622E1,8.3845056E2,4.0949454E2,5.0532495E2,2.81441E1,6.492121E0,2.0575137E2,6.326992E2,1.6905821E2,2.4043633E2,2.0154538E2,3.0377957E2],"tree_param":{"num_deleted":"0","num_feature":"33","num_nodes":"15","size_leaf_vector":"0"}},{"base_weights":[-1.6341967E-3,1.561158E-1,-3.2664128E-2,-3.7863273E-3,3.4387934E-1,-8.8007726E-2,8.1669606E-2,1.3369768E-2,-4.7015827E-2,2.2010626E-2,1.3695058E-1,-4.9863663E-3,-3.8905524E-2,4.005729E-3,4.852966E-2],"categories":[],"categories_nodes":[],"categories_segments":[],"categories_sizes":[],"default_left":[0,0,1,0,0,0,0,0,0,0,0,0,0,0,0],"id":74,"left_children":[1,3,5,7,9,11,13,-1,-1,-1,-1,-1,-1,-1,-1],"loss_changes":[8.681514E0,8.784482E0,9.402027E0,1.0232511E1,1.6591606E1,1.1436642E1,8.060084E0,0E0,0E0,0E0,0E0,0E0,0E0,0E0,0E0],"parents":[2147483647,0,0,1,1,2,2,3,3,4,4,5,5,6,6],"right_children":[2,4,6,8,10,12,14,-1,-1,-1,-1,-1,-1,-1,-1],"split_conditions":[7E0,7E0,4.89E2,5.31E2,6.62E2,1.9E1,1E0,1.3369768E-2,-4.7015827E-2,2.2010626E-2,1.3695058E-1,-4.9863663E-3,-3.8905524E-2,4.005729E-3,4.852966E-2],"split_indices":[2,6,16,15,14,8,23,0,0,0,0,0,0,0,0],"split_type":[0,0,0,0,0,0,0,0,0,0,0,0,0,0,0],"sum_hessian":[1.7740381E3,2.9040793E2,1.4836301E3,1.5708195E2,1.3332599E2,1.0004595E3,4.8317062E2,1.2170335E2,3.5378605E1,1.20139595E2,1.3186397E1,8.892814E2,1.1117811E2,4.3923434E2,4.39363E1],"tree_param":{"num_deleted":"0","num_feature":"33","num_nodes":"15","size_leaf_vector":"0"}},{"base_weights":[-5.5375933E-3,-3.7464358E-2,1.6994824E-1,1.5591918E-1,-6.675521E-2,1.1818965E-1,9.1422564E-1,3.2115273E-2,-6.2217494E-3,-2.996817E-3,-2.2740047E-2,2.5904072E-2,-2.3209138E-3,1.3098997E-1,-0E0],"categories":[],"categories_nodes":[],"categories_segments":[],"categories_sizes":[],"default_left":[1,0,0,0,1,0,0,0,0,0,0,0,0,0,0],"id":75,"left_children":[1,3,5,7,9,11,13,-1,-1,-1,-1,-1,-1,-1,-1],"loss_changes":[9.959322E0,8.533804E0,1.0325086E1,7.1822305E0,7.705088E0,5.148069E0,6.4481335E0,0E0,0E0,0E0,0E0,0E0,0E0,0E0,0E0],"parents":[2147483647,0,0,1,1,2,2,3,3,4,4,5,5,6,6],"right_children":[2,4,6,8,10,12,14,-1,-1,-1,-1,-1,-1,-1,-1],"split_conditions":[5.79E2,3.16E2,1.86474E5,1.494E3,5.41E2,6.09E2,1.17E2,3.2115273E-2,-6.2217494E-3,-2.996817E-3,-2.2740047E-2,2.5904072E-2,-2.3209138E-3,1.3098997E-1,-0E0],"split_indices":[15,1,0,3,15,15,3,0,0,0,0,0,0,0,0],"split_type":[0,0,0,0,0,0,0,0,0,0,0,0,0,0,0],"sum_hessian":[1.7778232E3,1.5053126E3,2.7251056E2,1.9699286E2,1.3083198E3,2.560009E2,1.6509674E1,1.1208057E2,8.491229E1,1.066016E3,2.4230385E2,1.2818633E2,1.2781457E2,1.1287221E1,5.2224526E0],"tree_param":{"num_deleted":"0","num_feature":"33","num_nodes":"15","size_leaf_vector":"0"}},{"base_weights":[-2.0635477E-3,-1.027535E-1,4.3790396E-2,-1.8310083E-1,2.1018586E-1,-1.0921499E-2,1.7506121E-1,3.3217505E-2,-2.258676E-2,4.8405446E-2,-1.041055E-2,7.534489E-3,-1.2464386E-2,1.5458563E-2,1.22208394E-1],"categories":[],"categories_nodes":[],"categories_segments":[],"categories_sizes":[],"default_left":[1,0,1,0,1,0,1,0,0,0,0,0,0,0,0],"id":76,"left_children":[1,3,5,7,9,11,13,-1,-1,-1,-1,-1,-1,-1,-1],"loss_changes":[8.24812E0,1.40977955E1,8.823125E0,9.888254E0,9.941091E0,8.507204E0,7.4178324E0,0E0,0E0,0E0,0E0,0E0,0E0,0E0,0E0],"parents":[2147483647,0,0,1,1,2,2,3,3,4,4,5,5,6,6],"right_children":[2,4,6,8,10,12,14,-1,-1,-1,-1,-1,-1,-1,-1],"split_conditions":[3E0,5.31E2,6.8E1,3E0,2.6196E4,7.3E1,2.29935E5,3.3217505E-2,-2.258676E-2,4.8405446E-2,-1.041055E-2,7.534489E-3,-1.2464386E-2,1.5458563E-2,1.22208394E-1],"split_indices":[12,16,2,2,0,12,0,0,0,0,0,0,0,0,0],"split_type":[0,0,0,0,0,0,0,0,0,0,0,0,0,0,0],"sum_hessian":[1.7832037E3,5.5826294E2,1.2249408E3,4.4479584E2,1.1346711E2,8.6470044E2,3.602404E2,3.3390038E1,4.114058E2,6.0514095E1,5.295301E1,4.913984E2,3.7330203E2,3.5454996E2,5.6904287E0],"tree_param":{"num_deleted":"0","num_feature":"33","num_nodes":"15","size_leaf_vector":"0"}},{"base_weights":[6.486779E-3,3.4718074E-2,-2.2752114E-1,4.292187E-2,-4.2695E-1,-2.7266815E-1,6.1416157E-2,1.6935741E-3,2.6657555E-2,-6.0054947E-2,2.2092937E-2,-4.495072E-2,-7.0029953E-3],"categories":[],"categories_nodes":[],"categories_segments":[],"categories_sizes":[],"default_left":[1,1,0,0,0,0,0,0,0,0,0,0,0],"id":77,"left_children":[1,3,5,7,9,11,-1,-1,-1,-1,-1,-1,-1],"loss_changes":[1.1713143E1,5.982722E0,7.3839836E0,9.024248E0,3.269319E0,6.434882E0,0E0,0E0,0E0,0E0,0E0,0E0,0E0],"parents":[2147483647,0,0,1,1,2,2,3,3,4,4,5,5],"right_children":[2,4,6,8,10,12,-1,-1,-1,-1,-1,-1,-1],"split_conditions":[3.7E1,4.1006E4,2.71585E5,1.4016E4,5E0,1.676E3,6.1416157E-2,1.6935741E-3,2.6657555E-2,-6.0054947E-2,2.2092937E-2,-4.495072E-2,-7.0029953E-3],"split_indices":[7,3,0,3,9,3,0,0,0,0,0,0,0],"split_type":[0,0,0,0,0,0,0,0,0,0,0,0,0],"sum_hessian":[1.7737363E3,1.5839265E3,1.8980984E2,1.5573757E3,2.6550777E1,1.8090134E2,8.908512E0,1.3966257E3,1.6074991E2,2.1119267E1,5.4315104E0,9.568598E1,8.5215355E1],"tree_param":{"num_deleted":"0","num_feature":"33","num_nodes":"13","size_leaf_vector":"0"}},{"base_weights":[-1.7202435E-2,-2.5477508E-1,-6.685112E-4,-1.2717575E-1,-9.6586615E-2,-1.0153669E-2,3.732633E-1,-4.146262E-3,-8.542194E-2,-1.751346E-2,7.7621575E-4,1.2815308E-3,1.2732671E-1],"categories":[],"categories_nodes":[],"categories_segments":[],"categories_sizes":[],"default_left":[1,0,0,1,0,0,0,0,0,0,0,0,0],"id":78,"left_children":[1,3,5,7,-1,9,11,-1,-1,-1,-1,-1,-1],"loss_changes":[6.984415E0,1.0268198E1,5.8903804E0,6.0687113E0,0E0,4.8355584E0,1.318069E1,0E0,0E0,0E0,0E0,0E0,0E0],"parents":[2147483647,0,0,1,1,2,2,3,3,5,5,6,6],"right_children":[2,4,6,8,-1,10,12,-1,-1,-1,-1,-1,-1],"split_conditions":[3.1E2,6.91E2,1E0,3.8E1,-9.6586615E-2,1.5E2,1.0698E4,-4.146262E-3,-8.542194E-2,-1.751346E-2,7.7621575E-4,1.2815308E-3,1.2732671E-1],"split_indices":[16,13,30,7,0,1,1,0,0,0,0,0,0],"split_type":[0,0,0,0,0,0,0,0,0,0,0,0,0],"sum_hessian":[1.7836528E3,1.1472564E2,1.6689271E3,9.838988E1,1.633576E1,1.62885E3,4.0077152E1,8.90823E1,9.307579E0,1.5924272E2,1.4696073E3,2.9419933E1,1.0657218E1],"tree_param":{"num_deleted":"0","num_feature":"33","num_nodes":"13","size_leaf_vector":"0"}},{"base_weights":[-1.2914255E-3,2.4197204E-2,-2.866591E-1,-5.9298567E-2,6.337555E-2,7.515557E-2,-3.4046426E-1,-1.1288494E-2,3.231522E-2,-5.2478887E-2,7.6295803E-3,-8.1087925E-2,-2.6023602E-2],"categories":[],"categories_nodes":[],"categories_segments":[],"categories_sizes":[],"default_left":[0,1,1,1,0,0,0,0,0,0,0,0,0],"id":79,"left_children":[1,3,5,7,9,-1,11,-1,-1,-1,-1,-1,-1],"loss_changes":[1.2947106E1,5.337792E0,8.369233E0,1.0681068E1,8.438276E0,0E0,4.9491024E0,0E0,0E0,0E0,0E0,0E0,0E0],"parents":[2147483647,0,0,1,1,2,2,3,3,4,4,6,6],"right_children":[2,4,6,8,10,-1,12,-1,-1,-1,-1,-1,-1],"split_conditions":[1E0,2E0,4E0,5.88E2,2.77E2,7.515557E-2,3E0,-1.1288494E-2,3.231522E-2,-5.2478887E-2,7.6295803E-3,-8.1087925E-2,-2.6023602E-2],"split_indices":[20,10,7,16,16,0,18,0,0,0,0,0,0],"split_type":[0,0,0,0,0,0,0,0,0,0,0,0,0],"sum_hessian":[1.774444E3,1.6294672E3,1.4497688E2,5.1942255E2,1.1100446E3,6.4126663E0,1.3856422E2,4.5643616E2,6.298639E1,2.2842352E1,1.0872023E3,1.868018E1,1.1988404E2],"tree_param":{"num_deleted":"0","num_feature":"33","num_nodes":"13","size_leaf_vector":"0"}}]},"name":"gbtree"},"learner_model_param":{"base_score":"5E-1","num_class":"0","num_feature":"33","num_target":"1"},"objective":{"name":"binary:logistic","reg_loss_param":{"scale_pos_weight":"1"}}},"version":[1,6,0]}